<?xml version="1.0"?>
<opencv_storage>
<cascade>
  <stageType>BOOST</stageType>
  <featureType>HAAR</featureType>
  <height>24</height>
  <width>24</width>
  <stageParams>
    <boostType>GAB</boostType>
    <minHitRate>9.9500000476837158e-01</minHitRate>
    <maxFalseAlarm>5.0000000000000000e-01</maxFalseAlarm>
    <weightTrimRate>9.4999999999999996e-01</weightTrimRate>
    <maxDepth>1</maxDepth>
    <maxWeakCount>100</maxWeakCount></stageParams>
  <featureParams>
    <maxCatCount>0</maxCatCount>
    <featSize>1</featSize>
    <mode>BASIC</mode></featureParams>
  <stageNum>10</stageNum>
  <stages>
    <!-- stage 0 -->
    <_>
      <maxWeakCount>2</maxWeakCount>
      <stageThreshold>2.1182781457901001e-01</stageThreshold>
      <weakClassifiers>
        <_>
          <internalNodes>
            0 -1 1 1.6392238438129425e-02</internalNodes>
          <leafValues>
            -3.0434781312942505e-01 1.</leafValues></_>
        <_>
          <internalNodes>
            0 -1 25 -5.1512953359633684e-04</internalNodes>
          <leafValues>
            -1. 5.1617562770843506e-01</leafValues></_></weakClassifiers></_>
    <!-- stage 1 -->
    <_>
      <maxWeakCount>2</maxWeakCount>
      <stageThreshold>1.9835144281387329e-01</stageThreshold>
      <weakClassifiers>
        <_>
          <internalNodes>
            0 -1 19 -7.8091756440699100e-03</internalNodes>
          <leafValues>
            -4.4999998807907104e-01 9.4285714626312256e-01</leafValues></_>
        <_>
          <internalNodes>
            0 -1 14 1.8607159290695563e-05</internalNodes>
          <leafValues>
            6.9325292110443115e-01 -7.4450570344924927e-01</leafValues></_></weakClassifiers></_>
    <!-- stage 2 -->
    <_>
      <maxWeakCount>3</maxWeakCount>
      <stageThreshold>-5.7805949449539185e-01</stageThreshold>
      <weakClassifiers>
        <_>
          <internalNodes>
            0 -1 24 -1.5293368138372898e-02</internalNodes>
          <leafValues>
            -6.2500000000000000e-01 8.1395345926284790e-01</leafValues></_>
        <_>
          <internalNodes>
            0 -1 15 -2.0095701620448381e-04</internalNodes>
          <leafValues>
            -9.4775968790054321e-01 6.2732577323913574e-01</leafValues></_>
        <_>
          <internalNodes>
            0 -1 5 5.5506005883216858e-03</internalNodes>
          <leafValues>
            -5.8038526773452759e-01 9.2938476800918579e-01</leafValues></_></weakClassifiers></_>
    <!-- stage 3 -->
    <_>
      <maxWeakCount>3</maxWeakCount>
      <stageThreshold>-1.6758443415164948e-01</stageThreshold>
      <weakClassifiers>
        <_>
          <internalNodes>
            0 -1 10 3.5817094147205353e-02</internalNodes>
          <leafValues>
            -3.4883719682693481e-01 9.3750000000000000e-01</leafValues></_>
        <_>
          <internalNodes>
            0 -1 16 -1.5772836282849312e-02</internalNodes>
          <leafValues>
            8.4065949916839600e-01 -4.7000592947006226e-01</leafValues></_>
        <_>
          <internalNodes>
            0 -1 11 -4.6872557140886784e-04</internalNodes>
          <leafValues>
            -6.3507848978042603e-01 7.2402274608612061e-01</leafValues></_></weakClassifiers></_>
    <!-- stage 4 -->
    <_>
      <maxWeakCount>2</maxWeakCount>
      <stageThreshold>-1.1615984886884689e-01</stageThreshold>
      <weakClassifiers>
        <_>
          <internalNodes>
            0 -1 22 -6.9139510393142700e-02</internalNodes>
          <leafValues>
            -6.6666668653488159e-01 7.7777779102325439e-01</leafValues></_>
        <_>
          <internalNodes>
            0 -1 0 -1.8683072994463146e-04</internalNodes>
          <leafValues>
            -8.9393764734268188e-01 5.7627940177917480e-01</leafValues></_></weakClassifiers></_>
    <!-- stage 5 -->
    <_>
      <maxWeakCount>2</maxWeakCount>
      <stageThreshold>1.5388955175876617e-01</stageThreshold>
      <weakClassifiers>
        <_>
          <internalNodes>
            0 -1 17 6.8708569742739201e-03</internalNodes>
          <leafValues>
            -2.5000000000000000e-01 1.</leafValues></_>
        <_>
          <internalNodes>
            0 -1 9 -1.1656329967081547e-02</internalNodes>
          <leafValues>
            -8.4611046314239502e-01 5.1864135265350342e-01</leafValues></_></weakClassifiers></_>
    <!-- stage 6 -->
    <_>
      <maxWeakCount>3</maxWeakCount>
      <stageThreshold>-7.6224750280380249e-01</stageThreshold>
      <weakClassifiers>
        <_>
          <internalNodes>
            0 -1 27 6.1272794846445322e-04</internalNodes>
          <leafValues>
            6.0000002384185791e-01 -8.9999997615814209e-01</leafValues></_>
        <_>
          <internalNodes>
            0 -1 13 2.4126297794282436e-03</internalNodes>
          <leafValues>
            6.0419476032257080e-01 -7.7712666988372803e-01</leafValues></_>
        <_>
          <internalNodes>
            0 -1 3 3.1700578983873129e-04</internalNodes>
          <leafValues>
            8.8871979713439941e-01 -5.8512085676193237e-01</leafValues></_></weakClassifiers></_>
    <!-- stage 7 -->
    <_>
      <maxWeakCount>4</maxWeakCount>
      <stageThreshold>-8.7294451892375946e-02</stageThreshold>
      <weakClassifiers>
        <_>
          <internalNodes>
            0 -1 18 -7.8410696005448699e-05</internalNodes>
          <leafValues>
            7.5609755516052246e-01 -4.7058823704719543e-01</leafValues></_>
        <_>
          <internalNodes>
            0 -1 20 1.2229005806148052e-03</internalNodes>
          <leafValues>
            6.9556379318237305e-01 -5.1767134666442871e-01</leafValues></_>
        <_>
          <internalNodes>
            0 -1 4 -1.1310745030641556e-03</internalNodes>
          <leafValues>
            7.0634222030639648e-01 -6.8131506443023682e-01</leafValues></_>
        <_>
          <internalNodes>
            0 -1 26 -1.6372412210330367e-04</internalNodes>
          <leafValues>
            -8.5764068365097046e-01 5.1186144351959229e-01</leafValues></_></weakClassifiers></_>
    <!-- stage 8 -->
    <_>
      <maxWeakCount>3</maxWeakCount>
      <stageThreshold>4.3841894716024399e-02</stageThreshold>
      <weakClassifiers>
        <_>
          <internalNodes>
            0 -1 2 2.0243261009454727e-02</internalNodes>
          <leafValues>
            -2.5000000000000000e-01 1.</leafValues></_>
        <_>
          <internalNodes>
            0 -1 12 -4.1566705476725474e-05</internalNodes>
          <leafValues>
            7.4926120042800903e-01 -5.3615772724151611e-01</leafValues></_>
        <_>
          <internalNodes>
            0 -1 8 1.0523341596126556e-02</internalNodes>
          <leafValues>
            -4.2000040411949158e-01 9.4127631187438965e-01</leafValues></_></weakClassifiers></_>
    <!-- stage 9 -->
    <_>
      <maxWeakCount>4</maxWeakCount>
      <stageThreshold>5.2622547373175621e-03</stageThreshold>
      <weakClassifiers>
        <_>
          <internalNodes>
            0 -1 23 6.2649481697008014e-04</internalNodes>
          <leafValues>
            -4.7058823704719543e-01 7.5609755516052246e-01</leafValues></_>
        <_>
          <internalNodes>
            0 -1 21 -1.4450363232754171e-04</internalNodes>
          <leafValues>
            -8.4066855907440186e-01 4.9898847937583923e-01</leafValues></_>
        <_>
          <internalNodes>
            0 -1 7 3.9136398117989302e-04</internalNodes>
          <leafValues>
            5.8872884511947632e-01 -7.4123543500900269e-01</leafValues></_>
        <_>
          <internalNodes>
            0 -1 6 3.6507893353700638e-02</internalNodes>
          <leafValues>
            -4.9889561533927917e-01 9.0251117944717407e-01</leafValues></_></weakClassifiers></_></stages>
  <features>
    <_>
      <rects>
        <_>
          0 10 2 2 -1.</_>
        <_>
          0 10 1 1 2.</_>
        <_>
          1 11 1 1 2.</_></rects>
      <tilted>0</tilted></_>
    <_>
      <rects>
        <_>
          0 19 21 4 -1.</_>
        <_>
          0 21 21 2 2.</_></rects>
      <tilted>0</tilted></_>
    <_>
      <rects>
        <_>
          0 20 17 4 -1.</_>
        <_>
          0 22 17 2 2.</_></rects>
      <tilted>0</tilted></_>
    <_>
      <rects>
        <_>
          1 12 20 2 -1.</_>
        <_>
          1 13 20 1 2.</_></rects>
      <tilted>0</tilted></_>
    <_>
      <rects>
        <_>
          1 13 14 4 -1.</_>
        <_>
          1 15 14 2 2.</_></rects>
      <tilted>0</tilted></_>
    <_>
      <rects>
        <_>
          1 21 22 2 -1.</_>
        <_>
          1 22 22 1 2.</_></rects>
      <tilted>0</tilted></_>
    <_>
      <rects>
        <_>
          3 17 19 6 -1.</_>
        <_>
          3 20 19 3 2.</_></rects>
      <tilted>0</tilted></_>
    <_>
      <rects>
        <_>
          4 0 4 2 -1.</_>
        <_>
          4 1 4 1 2.</_></rects>
      <tilted>0</tilted></_>
    <_>
      <rects>
        <_>
          4 2 6 12 -1.</_>
        <_>
          4 2 3 6 2.</_>
        <_>
          7 8 3 6 2.</_></rects>
      <tilted>0</tilted></_>
    <_>
      <rects>
        <_>
          4 9 6 1 -1.</_>
        <_>
          6 9 2 1 2.</_></rects>
      <tilted>0</tilted></_>
    <_>
      <rects>
        <_>
          4 16 12 8 -1.</_>
        <_>
          4 20 12 4 2.</_></rects>
      <tilted>0</tilted></_>
    <_>
      <rects>
        <_>
          8 18 4 2 -1.</_>
        <_>
          10 18 2 2 2.</_></rects>
      <tilted>0</tilted></_>
    <_>
      <rects>
        <_>
          9 3 4 20 -1.</_>
        <_>
          11 3 2 20 2.</_></rects>
      <tilted>0</tilted></_>
    <_>
      <rects>
        <_>
          9 15 4 3 -1.</_>
        <_>
          11 15 2 3 2.</_></rects>
      <tilted>0</tilted></_>
    <_>
      <rects>
        <_>
          10 15 1 2 -1.</_>
        <_>
          10 16 1 1 2.</_></rects>
      <tilted>0</tilted></_>
    <_>
      <rects>
        <_>
          10 22 2 2 -1.</_>
        <_>
          10 22 1 1 2.</_>
        <_>
          11 23 1 1 2.</_></rects>
      <tilted>0</tilted></_>
    <_>
      <rects>
        <_>
          11 3 8 12 -1.</_>
        <_>
          11 3 4 6 2.</_>
        <_>
          15 9 4 6 2.</_></rects>
      <tilted>0</tilted></_>
    <_>
      <rects>
        <_>
          12 13 12 1 -1.</_>
        <_>
          18 13 6 1 2.</_></rects>
      <tilted>0</tilted></_>
    <_>
      <rects>
        <_>
          13 13 3 4 -1.</_>
        <_>
          13 15 3 2 2.</_></rects>
      <tilted>0</tilted></_>
    <_>
      <rects>
        <_>
          13 15 3 3 -1.</_>
        <_>
          13 16 3 1 2.</_></rects>
      <tilted>0</tilted></_>
    <_>
      <rects>
        <_>
          14 8 2 8 -1.</_>
        <_>
          14 12 2 4 2.</_></rects>
      <tilted>0</tilted></_>
    <_>
      <rects>
        <_>
          17 0 2 2 -1.</_>
        <_>
          17 0 1 1 2.</_>
        <_>
          18 1 1 1 2.</_></rects>
      <tilted>0</tilted></_>
    <_>
      <rects>
        <_>
          18 0 2 18 -1.</_>
        <_>
          18 6 2 6 2.</_></rects>
      <tilted>0</tilted></_>
    <_>
      <rects>
        <_>
          18 17 6 4 -1.</_>
        <_>
          21 17 3 4 2.</_></rects>
      <tilted>0</tilted></_>
    <_>
      <rects>
        <_>
          19 11 1 9 -1.</_>
        <_>
          19 14 1 3 2.</_></rects>
      <tilted>0</tilted></_>
    <_>
      <rects>
        <_>
          22 11 2 2 -1.</_>
        <_>
          23 11 1 2 2.</_></rects>
      <tilted>0</tilted></_>
    <_>
      <rects>
        <_>
          22 19 2 1 -1.</_>
        <_>
          23 19 1 1 2.</_></rects>
      <tilted>0</tilted></_>
    <_>
      <rects>
        <_>
          23 13 1 4 -1.</_>
        <_>
          23 15 1 2 2.</_></rects>
      <tilted>0</tilted></_></features></cascade>
</opencv_storage>
