<?xml version="1.0"?>
<opencv_storage>
<cascade>
  <stageType>BOOST</stageType>
  <featureType>HAAR</featureType>
  <height>30</height>
  <width>30</width>
  <stageParams>
    <boostType>GAB</boostType>
    <minHitRate>9.9500000476837158e-01</minHitRate>
    <maxFalseAlarm>3.4999999403953552e-01</maxFalseAlarm>
    <weightTrimRate>9.4999999999999996e-01</weightTrimRate>
    <maxDepth>1</maxDepth>
    <maxWeakCount>100</maxWeakCount></stageParams>
  <featureParams>
    <maxCatCount>0</maxCatCount>
    <featSize>1</featSize>
    <mode>ALL</mode></featureParams>
  <stageNum>25</stageNum>
  <stages>
    <!-- stage 0 -->
    <_>
      <maxWeakCount>5</maxWeakCount>
      <stageThreshold>-5.1873004436492920e-01</stageThreshold>
      <weakClassifiers>
        <_>
          <internalNodes>
            0 -1 75 1.3910930603742599e-02</internalNodes>
          <leafValues>
            -5.6122446060180664e-01 8.8118809461593628e-01</leafValues></_>
        <_>
          <internalNodes>
            0 -1 191 -1.6481846570968628e-02</internalNodes>
          <leafValues>
            -5.8376842737197876e-01 4.9462482333183289e-01</leafValues></_>
        <_>
          <internalNodes>
            0 -1 233 -1.5421047282870859e-04</internalNodes>
          <leafValues>
            -7.0407056808471680e-01 3.5834139585494995e-01</leafValues></_>
        <_>
          <internalNodes>
            0 -1 176 -1.5176337212324142e-02</internalNodes>
          <leafValues>
            8.1889843940734863e-01 -3.3211323618888855e-01</leafValues></_>
        <_>
          <internalNodes>
            0 -1 50 -2.4898547679185867e-02</internalNodes>
          <leafValues>
            6.0003471374511719e-01 -4.4255185127258301e-01</leafValues></_></weakClassifiers></_>
    <!-- stage 1 -->
    <_>
      <maxWeakCount>8</maxWeakCount>
      <stageThreshold>-5.7213288545608521e-01</stageThreshold>
      <weakClassifiers>
        <_>
          <internalNodes>
            0 -1 70 -3.0045889317989349e-02</internalNodes>
          <leafValues>
            8.0582523345947266e-01 -5.3608244657516479e-01</leafValues></_>
        <_>
          <internalNodes>
            0 -1 203 2.9778901487588882e-02</internalNodes>
          <leafValues>
            -3.5461392998695374e-01 6.6881561279296875e-01</leafValues></_>
        <_>
          <internalNodes>
            0 -1 87 -8.6557697504758835e-03</internalNodes>
          <leafValues>
            8.1194329261779785e-01 -2.7233085036277771e-01</leafValues></_>
        <_>
          <internalNodes>
            0 -1 245 -8.0830901861190796e-02</internalNodes>
          <leafValues>
            -8.7976270914077759e-01 3.1608465313911438e-01</leafValues></_>
        <_>
          <internalNodes>
            0 -1 3 -1.0591335594654083e-02</internalNodes>
          <leafValues>
            7.9680180549621582e-01 -3.5142570734024048e-01</leafValues></_>
        <_>
          <internalNodes>
            0 -1 34 1.4365617244038731e-04</internalNodes>
          <leafValues>
            3.3022499084472656e-01 -7.7251774072647095e-01</leafValues></_>
        <_>
          <internalNodes>
            0 -1 190 -1.9210014492273331e-02</internalNodes>
          <leafValues>
            6.6355097293853760e-01 -4.0365469455718994e-01</leafValues></_>
        <_>
          <internalNodes>
            0 -1 30 -9.4328038394451141e-03</internalNodes>
          <leafValues>
            6.9966512918472290e-01 -3.3561474084854126e-01</leafValues></_></weakClassifiers></_>
    <!-- stage 2 -->
    <_>
      <maxWeakCount>9</maxWeakCount>
      <stageThreshold>-4.6515259146690369e-01</stageThreshold>
      <weakClassifiers>
        <_>
          <internalNodes>
            0 -1 93 4.6527817845344543e-02</internalNodes>
          <leafValues>
            -4.1463413834571838e-01 6.9565218687057495e-01</leafValues></_>
        <_>
          <internalNodes>
            0 -1 263 -4.5409565791487694e-04</internalNodes>
          <leafValues>
            -7.3058837652206421e-01 2.5558272004127502e-01</leafValues></_>
        <_>
          <internalNodes>
            0 -1 204 6.3626579940319061e-03</internalNodes>
          <leafValues>
            -3.5599118471145630e-01 5.2217185497283936e-01</leafValues></_>
        <_>
          <internalNodes>
            0 -1 8 -1.9066479057073593e-02</internalNodes>
          <leafValues>
            -9.0775334835052490e-01 2.9315316677093506e-01</leafValues></_>
        <_>
          <internalNodes>
            0 -1 100 1.6106620430946350e-02</internalNodes>
          <leafValues>
            -3.1848728656768799e-01 8.3538258075714111e-01</leafValues></_>
        <_>
          <internalNodes>
            0 -1 205 -3.9238447789102793e-04</internalNodes>
          <leafValues>
            -7.7753198146820068e-01 3.3062568306922913e-01</leafValues></_>
        <_>
          <internalNodes>
            0 -1 96 3.0680722557008266e-03</internalNodes>
          <leafValues>
            -3.3593547344207764e-01 7.1277719736099243e-01</leafValues></_>
        <_>
          <internalNodes>
            0 -1 66 -5.2651166915893555e-03</internalNodes>
          <leafValues>
            6.8034070730209351e-01 -2.8948965668678284e-01</leafValues></_>
        <_>
          <internalNodes>
            0 -1 178 -7.7995928004384041e-03</internalNodes>
          <leafValues>
            5.7397747039794922e-01 -3.6981210112571716e-01</leafValues></_></weakClassifiers></_>
    <!-- stage 3 -->
    <_>
      <maxWeakCount>7</maxWeakCount>
      <stageThreshold>-5.7115298509597778e-01</stageThreshold>
      <weakClassifiers>
        <_>
          <internalNodes>
            0 -1 73 1.3892401009798050e-02</internalNodes>
          <leafValues>
            -5.0549453496932983e-01 6.1739128828048706e-01</leafValues></_>
        <_>
          <internalNodes>
            0 -1 196 -3.7976950407028198e-03</internalNodes>
          <leafValues>
            -2.9963496327400208e-01 7.2106158733367920e-01</leafValues></_>
        <_>
          <internalNodes>
            0 -1 135 9.9005317315459251e-04</internalNodes>
          <leafValues>
            -3.2896539568901062e-01 5.6923800706863403e-01</leafValues></_>
        <_>
          <internalNodes>
            0 -1 61 2.7286992408335209e-03</internalNodes>
          <leafValues>
            -2.6928585767745972e-01 8.3532512187957764e-01</leafValues></_>
        <_>
          <internalNodes>
            0 -1 23 -6.0001853853464127e-03</internalNodes>
          <leafValues>
            6.2934345006942749e-01 -3.3134067058563232e-01</leafValues></_>
        <_>
          <internalNodes>
            0 -1 99 1.1412161402404308e-02</internalNodes>
          <leafValues>
            -1.5923216938972473e-01 9.4403195381164551e-01</leafValues></_>
        <_>
          <internalNodes>
            0 -1 141 -4.5184620830696076e-05</internalNodes>
          <leafValues>
            4.2459717392921448e-01 -4.8225095868110657e-01</leafValues></_></weakClassifiers></_>
    <!-- stage 4 -->
    <_>
      <maxWeakCount>11</maxWeakCount>
      <stageThreshold>-2.9114770889282227e-01</stageThreshold>
      <weakClassifiers>
        <_>
          <internalNodes>
            0 -1 40 -1.7052620649337769e-01</internalNodes>
          <leafValues>
            6.4210528135299683e-01 -4.0594059228897095e-01</leafValues></_>
        <_>
          <internalNodes>
            0 -1 244 -1.0803909390233457e-04</internalNodes>
          <leafValues>
            -6.6819036006927490e-01 2.5593438744544983e-01</leafValues></_>
        <_>
          <internalNodes>
            0 -1 214 -3.0489568598568439e-03</internalNodes>
          <leafValues>
            5.1318162679672241e-01 -3.0208414793014526e-01</leafValues></_>
        <_>
          <internalNodes>
            0 -1 188 2.8000343590974808e-03</internalNodes>
          <leafValues>
            -2.8766661882400513e-01 5.3161501884460449e-01</leafValues></_>
        <_>
          <internalNodes>
            0 -1 142 2.3370636627078056e-03</internalNodes>
          <leafValues>
            -2.6335990428924561e-01 6.0750180482864380e-01</leafValues></_>
        <_>
          <internalNodes>
            0 -1 247 -1.3817729428410530e-02</internalNodes>
          <leafValues>
            -7.5424325466156006e-01 2.2780874371528625e-01</leafValues></_>
        <_>
          <internalNodes>
            0 -1 175 -8.0709848552942276e-03</internalNodes>
          <leafValues>
            7.4089282751083374e-01 -2.1891552209854126e-01</leafValues></_>
        <_>
          <internalNodes>
            0 -1 231 -1.2403153232298791e-04</internalNodes>
          <leafValues>
            -6.2624716758728027e-01 2.7534696459770203e-01</leafValues></_>
        <_>
          <internalNodes>
            0 -1 146 9.1974437236785889e-03</internalNodes>
          <leafValues>
            -3.1123423576354980e-01 6.7969048023223877e-01</leafValues></_>
        <_>
          <internalNodes>
            0 -1 31 -3.2271794043481350e-04</internalNodes>
          <leafValues>
            -5.9468394517898560e-01 3.5463467240333557e-01</leafValues></_>
        <_>
          <internalNodes>
            0 -1 187 -8.0190561711788177e-03</internalNodes>
          <leafValues>
            6.2745004892349243e-01 -3.1974694132804871e-01</leafValues></_></weakClassifiers></_>
    <!-- stage 5 -->
    <_>
      <maxWeakCount>5</maxWeakCount>
      <stageThreshold>-7.7660363912582397e-01</stageThreshold>
      <weakClassifiers>
        <_>
          <internalNodes>
            0 -1 189 4.7705166041851044e-02</internalNodes>
          <leafValues>
            -5.6818181276321411e-01 6.5289258956909180e-01</leafValues></_>
        <_>
          <internalNodes>
            0 -1 27 -4.7519714571535587e-03</internalNodes>
          <leafValues>
            8.0151873826980591e-01 -3.6030137538909912e-01</leafValues></_>
        <_>
          <internalNodes>
            0 -1 229 -9.8693277686834335e-04</internalNodes>
          <leafValues>
            8.0183446407318115e-01 -3.2334592938423157e-01</leafValues></_>
        <_>
          <internalNodes>
            0 -1 53 5.7764787925407290e-04</internalNodes>
          <leafValues>
            -3.5227382183074951e-01 7.5579458475112915e-01</leafValues></_>
        <_>
          <internalNodes>
            0 -1 95 -3.8696583360433578e-03</internalNodes>
          <leafValues>
            8.6464107036590576e-01 -2.9768109321594238e-01</leafValues></_></weakClassifiers></_>
    <!-- stage 6 -->
    <_>
      <maxWeakCount>8</maxWeakCount>
      <stageThreshold>-9.0127938985824585e-01</stageThreshold>
      <weakClassifiers>
        <_>
          <internalNodes>
            0 -1 13 -3.4695401787757874e-02</internalNodes>
          <leafValues>
            6.6972476243972778e-01 -5.0000000000000000e-01</leafValues></_>
        <_>
          <internalNodes>
            0 -1 69 5.1127176266163588e-04</internalNodes>
          <leafValues>
            -2.1983850002288818e-01 8.5779339075088501e-01</leafValues></_>
        <_>
          <internalNodes>
            0 -1 42 -9.3281716108322144e-03</internalNodes>
          <leafValues>
            8.2149994373321533e-01 -2.4597190320491791e-01</leafValues></_>
        <_>
          <internalNodes>
            0 -1 261 -4.6002567978575826e-04</internalNodes>
          <leafValues>
            -6.3141196966171265e-01 3.3503937721252441e-01</leafValues></_>
        <_>
          <internalNodes>
            0 -1 117 -4.6517044305801392e-02</internalNodes>
          <leafValues>
            2.0897233486175537e-01 -9.2943394184112549e-01</leafValues></_>
        <_>
          <internalNodes>
            0 -1 242 -1.8291501328349113e-03</internalNodes>
          <leafValues>
            8.0272752046585083e-01 -2.7264931797981262e-01</leafValues></_>
        <_>
          <internalNodes>
            0 -1 139 -1.9030495313927531e-03</internalNodes>
          <leafValues>
            8.7000864744186401e-01 -1.8326081335544586e-01</leafValues></_>
        <_>
          <internalNodes>
            0 -1 53 7.2999467374756932e-04</internalNodes>
          <leafValues>
            -2.2684398293495178e-01 7.9601728916168213e-01</leafValues></_></weakClassifiers></_>
    <!-- stage 7 -->
    <_>
      <maxWeakCount>10</maxWeakCount>
      <stageThreshold>-6.7887300252914429e-01</stageThreshold>
      <weakClassifiers>
        <_>
          <internalNodes>
            0 -1 201 4.8394333571195602e-02</internalNodes>
          <leafValues>
            -4.3181818723678589e-01 4.5454546809196472e-01</leafValues></_>
        <_>
          <internalNodes>
            0 -1 223 -1.5482248272746801e-03</internalNodes>
          <leafValues>
            4.1080388426780701e-01 -3.6217093467712402e-01</leafValues></_>
        <_>
          <internalNodes>
            0 -1 200 -3.2616211101412773e-03</internalNodes>
          <leafValues>
            4.9178716540336609e-01 -2.8845766186714172e-01</leafValues></_>
        <_>
          <internalNodes>
            0 -1 249 -7.0546154165640473e-04</internalNodes>
          <leafValues>
            -8.4862917661666870e-01 1.8835821747779846e-01</leafValues></_>
        <_>
          <internalNodes>
            0 -1 89 -2.6240628212690353e-03</internalNodes>
          <leafValues>
            -3.1763541698455811e-01 5.2865546941757202e-01</leafValues></_>
        <_>
          <internalNodes>
            0 -1 152 -1.1512829922139645e-02</internalNodes>
          <leafValues>
            -7.3124933242797852e-01 2.7602016925811768e-01</leafValues></_>
        <_>
          <internalNodes>
            0 -1 221 7.7371427323669195e-04</internalNodes>
          <leafValues>
            -3.3685132861137390e-01 5.4693466424942017e-01</leafValues></_>
        <_>
          <internalNodes>
            0 -1 217 -1.5321632847189903e-02</internalNodes>
          <leafValues>
            7.5546938180923462e-01 -2.2615943849086761e-01</leafValues></_>
        <_>
          <internalNodes>
            0 -1 224 -2.6758094318211079e-03</internalNodes>
          <leafValues>
            7.4254602193832397e-01 -2.3511706292629242e-01</leafValues></_>
        <_>
          <internalNodes>
            0 -1 11 -1.6093246638774872e-02</internalNodes>
          <leafValues>
            -7.0624381303787231e-01 2.7471378445625305e-01</leafValues></_></weakClassifiers></_>
    <!-- stage 8 -->
    <_>
      <maxWeakCount>13</maxWeakCount>
      <stageThreshold>-6.9398748874664307e-01</stageThreshold>
      <weakClassifiers>
        <_>
          <internalNodes>
            0 -1 134 2.9775543953292072e-04</internalNodes>
          <leafValues>
            -3.2038834691047668e-01 4.9450549483299255e-01</leafValues></_>
        <_>
          <internalNodes>
            0 -1 108 -1.0527156293392181e-01</internalNodes>
          <leafValues>
            4.1345345973968506e-01 -3.8643395900726318e-01</leafValues></_>
        <_>
          <internalNodes>
            0 -1 44 -2.2262609004974365e-01</internalNodes>
          <leafValues>
            2.5908502936363220e-01 -5.8436238765716553e-01</leafValues></_>
        <_>
          <internalNodes>
            0 -1 33 -4.3941872718278319e-05</internalNodes>
          <leafValues>
            -4.7292637825012207e-01 3.4020030498504639e-01</leafValues></_>
        <_>
          <internalNodes>
            0 -1 235 1.7429500818252563e-02</internalNodes>
          <leafValues>
            -2.1318504214286804e-01 8.1969243288040161e-01</leafValues></_>
        <_>
          <internalNodes>
            0 -1 259 3.9867952000349760e-04</internalNodes>
          <leafValues>
            2.5290104746818542e-01 -5.6413036584854126e-01</leafValues></_>
        <_>
          <internalNodes>
            0 -1 252 9.0567499864846468e-04</internalNodes>
          <leafValues>
            2.3418185114860535e-01 -8.3389705419540405e-01</leafValues></_>
        <_>
          <internalNodes>
            0 -1 55 -1.8609721155371517e-04</internalNodes>
          <leafValues>
            3.9173045754432678e-01 -3.6286827921867371e-01</leafValues></_>
        <_>
          <internalNodes>
            0 -1 52 2.1072758827358484e-03</internalNodes>
          <leafValues>
            -2.5032606720924377e-01 6.7008435726165771e-01</leafValues></_>
        <_>
          <internalNodes>
            0 -1 131 9.5236289780586958e-04</internalNodes>
          <leafValues>
            -3.1104895472526550e-01 4.8894271254539490e-01</leafValues></_>
        <_>
          <internalNodes>
            0 -1 209 2.3464160040020943e-03</internalNodes>
          <leafValues>
            -2.9781484603881836e-01 4.7524675726890564e-01</leafValues></_>
        <_>
          <internalNodes>
            0 -1 210 5.4009510204195976e-03</internalNodes>
          <leafValues>
            -1.9329097867012024e-01 8.6015874147415161e-01</leafValues></_>
        <_>
          <internalNodes>
            0 -1 143 4.1411556303501129e-03</internalNodes>
          <leafValues>
            -2.0136515796184540e-01 6.4192438125610352e-01</leafValues></_></weakClassifiers></_>
    <!-- stage 9 -->
    <_>
      <maxWeakCount>7</maxWeakCount>
      <stageThreshold>-1.0120190382003784e+00</stageThreshold>
      <weakClassifiers>
        <_>
          <internalNodes>
            0 -1 159 -2.4576708674430847e-02</internalNodes>
          <leafValues>
            -6.8098157644271851e-01 6.7164176702499390e-01</leafValues></_>
        <_>
          <internalNodes>
            0 -1 145 -8.4803074598312378e-02</internalNodes>
          <leafValues>
            -4.3106874823570251e-01 4.6581634879112244e-01</leafValues></_>
        <_>
          <internalNodes>
            0 -1 35 2.5221984833478928e-04</internalNodes>
          <leafValues>
            3.0146944522857666e-01 -6.9692271947860718e-01</leafValues></_>
        <_>
          <internalNodes>
            0 -1 39 1.2575268920045346e-04</internalNodes>
          <leafValues>
            3.3855664730072021e-01 -6.4386248588562012e-01</leafValues></_>
        <_>
          <internalNodes>
            0 -1 104 -8.3646067650988698e-04</internalNodes>
          <leafValues>
            -2.8412431478500366e-01 8.5985636711120605e-01</leafValues></_>
        <_>
          <internalNodes>
            0 -1 16 5.4233503760769963e-04</internalNodes>
          <leafValues>
            2.8333413600921631e-01 -7.5694751739501953e-01</leafValues></_>
        <_>
          <internalNodes>
            0 -1 71 -2.4125247728079557e-04</internalNodes>
          <leafValues>
            -5.3920459747314453e-01 3.1985357403755188e-01</leafValues></_></weakClassifiers></_>
    <!-- stage 10 -->
    <_>
      <maxWeakCount>11</maxWeakCount>
      <stageThreshold>-8.0580759048461914e-01</stageThreshold>
      <weakClassifiers>
        <_>
          <internalNodes>
            0 -1 128 4.7210529446601868e-03</internalNodes>
          <leafValues>
            -3.3333334326744080e-01 4.3137255311012268e-01</leafValues></_>
        <_>
          <internalNodes>
            0 -1 38 -7.9496024409309030e-04</internalNodes>
          <leafValues>
            -5.6676936149597168e-01 2.2545541822910309e-01</leafValues></_>
        <_>
          <internalNodes>
            0 -1 225 -3.3448559697717428e-03</internalNodes>
          <leafValues>
            -8.8575881719589233e-01 1.2684410810470581e-01</leafValues></_>
        <_>
          <internalNodes>
            0 -1 51 -8.1758340820670128e-04</internalNodes>
          <leafValues>
            4.6046364307403564e-01 -3.1071421504020691e-01</leafValues></_>
        <_>
          <internalNodes>
            0 -1 115 -7.8661961015313864e-04</internalNodes>
          <leafValues>
            4.4156372547149658e-01 -3.3302676677703857e-01</leafValues></_>
        <_>
          <internalNodes>
            0 -1 97 -8.1801842898130417e-03</internalNodes>
          <leafValues>
            8.3418476581573486e-01 -1.8851052224636078e-01</leafValues></_>
        <_>
          <internalNodes>
            0 -1 148 -3.3168257214128971e-03</internalNodes>
          <leafValues>
            -2.6382890343666077e-01 5.1901543140411377e-01</leafValues></_>
        <_>
          <internalNodes>
            0 -1 103 5.8094547130167484e-03</internalNodes>
          <leafValues>
            -2.4259516596794128e-01 6.4610499143600464e-01</leafValues></_>
        <_>
          <internalNodes>
            0 -1 121 5.4737962782382965e-03</internalNodes>
          <leafValues>
            -2.7357706427574158e-01 5.2603304386138916e-01</leafValues></_>
        <_>
          <internalNodes>
            0 -1 76 1.1905559949809685e-04</internalNodes>
          <leafValues>
            2.7745929360389709e-01 -5.8718633651733398e-01</leafValues></_>
        <_>
          <internalNodes>
            0 -1 186 -1.8111259851139039e-04</internalNodes>
          <leafValues>
            -6.2058001756668091e-01 2.5549456477165222e-01</leafValues></_></weakClassifiers></_>
    <!-- stage 11 -->
    <_>
      <maxWeakCount>11</maxWeakCount>
      <stageThreshold>-5.3244936466217041e-01</stageThreshold>
      <weakClassifiers>
        <_>
          <internalNodes>
            0 -1 0 -3.4059412777423859e-02</internalNodes>
          <leafValues>
            3.7500000000000000e-01 -4.0828403830528259e-01</leafValues></_>
        <_>
          <internalNodes>
            0 -1 153 2.3570703342556953e-04</internalNodes>
          <leafValues>
            -2.4503464996814728e-01 5.7367873191833496e-01</leafValues></_>
        <_>
          <internalNodes>
            0 -1 37 3.4273699857294559e-03</internalNodes>
          <leafValues>
            -3.6413553357124329e-01 3.9590007066726685e-01</leafValues></_>
        <_>
          <internalNodes>
            0 -1 216 -4.2945221066474915e-03</internalNodes>
          <leafValues>
            3.9365437626838684e-01 -3.5449072718620300e-01</leafValues></_>
        <_>
          <internalNodes>
            0 -1 197 -1.2424305081367493e-02</internalNodes>
          <leafValues>
            -4.5983934402465820e-01 2.9385781288146973e-01</leafValues></_>
        <_>
          <internalNodes>
            0 -1 161 -1.3990266248583794e-02</internalNodes>
          <leafValues>
            4.7528690099716187e-01 -3.0151662230491638e-01</leafValues></_>
        <_>
          <internalNodes>
            0 -1 158 2.3517287336289883e-03</internalNodes>
          <leafValues>
            2.3119367659091949e-01 -6.9126552343368530e-01</leafValues></_>
        <_>
          <internalNodes>
            0 -1 206 -3.1867392361164093e-02</internalNodes>
          <leafValues>
            9.4087201356887817e-01 -1.8260356783866882e-01</leafValues></_>
        <_>
          <internalNodes>
            0 -1 198 2.7944406028836966e-03</internalNodes>
          <leafValues>
            -2.4042691290378571e-01 6.3758403062820435e-01</leafValues></_>
        <_>
          <internalNodes>
            0 -1 101 4.3821047991514206e-02</internalNodes>
          <leafValues>
            -1.9982385635375977e-01 7.7540880441665649e-01</leafValues></_>
        <_>
          <internalNodes>
            0 -1 156 -7.3549954686313868e-04</internalNodes>
          <leafValues>
            5.9484821557998657e-01 -2.0104236900806427e-01</leafValues></_></weakClassifiers></_>
    <!-- stage 12 -->
    <_>
      <maxWeakCount>12</maxWeakCount>
      <stageThreshold>-5.6804037094116211e-01</stageThreshold>
      <weakClassifiers>
        <_>
          <internalNodes>
            0 -1 132 -3.3893525600433350e-01</internalNodes>
          <leafValues>
            2.4324324727058411e-01 -5.8928573131561279e-01</leafValues></_>
        <_>
          <internalNodes>
            0 -1 25 -8.4408648312091827e-02</internalNodes>
          <leafValues>
            4.8840937018394470e-01 -3.1352648138999939e-01</leafValues></_>
        <_>
          <internalNodes>
            0 -1 256 -7.1071495767682791e-05</internalNodes>
          <leafValues>
            -7.0820969343185425e-01 2.0288132131099701e-01</leafValues></_>
        <_>
          <internalNodes>
            0 -1 6 8.9317373931407928e-02</internalNodes>
          <leafValues>
            -1.8475170433521271e-01 7.2513949871063232e-01</leafValues></_>
        <_>
          <internalNodes>
            0 -1 22 2.1110361558385193e-04</internalNodes>
          <leafValues>
            -2.6842817664146423e-01 5.0600433349609375e-01</leafValues></_>
        <_>
          <internalNodes>
            0 -1 26 -3.0248069379013032e-05</internalNodes>
          <leafValues>
            3.4290894865989685e-01 -3.9972072839736938e-01</leafValues></_>
        <_>
          <internalNodes>
            0 -1 15 -2.7706402540206909e-01</internalNodes>
          <leafValues>
            2.7347251772880554e-01 -5.3280431032180786e-01</leafValues></_>
        <_>
          <internalNodes>
            0 -1 124 -5.5323861539363861e-02</internalNodes>
          <leafValues>
            -6.4147394895553589e-01 2.2280935943126678e-01</leafValues></_>
        <_>
          <internalNodes>
            0 -1 212 -4.8394333134638146e-05</internalNodes>
          <leafValues>
            -4.6872615814208984e-01 2.9602363705635071e-01</leafValues></_>
        <_>
          <internalNodes>
            0 -1 112 7.4998711170337629e-06</internalNodes>
          <leafValues>
            -4.3588340282440186e-01 3.6113435029983521e-01</leafValues></_>
        <_>
          <internalNodes>
            0 -1 65 7.9545872285962105e-03</internalNodes>
          <leafValues>
            -2.7186509966850281e-01 6.3820892572402954e-01</leafValues></_>
        <_>
          <internalNodes>
            0 -1 207 1.1628803331404924e-03</internalNodes>
          <leafValues>
            2.1363103389739990e-01 -6.7659938335418701e-01</leafValues></_></weakClassifiers></_>
    <!-- stage 13 -->
    <_>
      <maxWeakCount>9</maxWeakCount>
      <stageThreshold>-4.2598599195480347e-01</stageThreshold>
      <weakClassifiers>
        <_>
          <internalNodes>
            0 -1 45 -3.3721402287483215e-02</internalNodes>
          <leafValues>
            -3.1775701045989990e-01 5.6626504659652710e-01</leafValues></_>
        <_>
          <internalNodes>
            0 -1 240 -2.2538644261658192e-03</internalNodes>
          <leafValues>
            -6.5555089712142944e-01 2.1969650685787201e-01</leafValues></_>
        <_>
          <internalNodes>
            0 -1 90 -1.4595681568607688e-03</internalNodes>
          <leafValues>
            -7.7495527267456055e-01 1.6318711638450623e-01</leafValues></_>
        <_>
          <internalNodes>
            0 -1 2 -2.4481280706822872e-04</internalNodes>
          <leafValues>
            -4.2759159207344055e-01 3.1496015191078186e-01</leafValues></_>
        <_>
          <internalNodes>
            0 -1 48 -8.4377941675484180e-05</internalNodes>
          <leafValues>
            -5.7976472377777100e-01 2.5101572275161743e-01</leafValues></_>
        <_>
          <internalNodes>
            0 -1 182 -8.6191464215517044e-03</internalNodes>
          <leafValues>
            5.9485876560211182e-01 -2.5400185585021973e-01</leafValues></_>
        <_>
          <internalNodes>
            0 -1 21 -1.7923719715327024e-03</internalNodes>
          <leafValues>
            -8.5159134864807129e-01 1.6990405321121216e-01</leafValues></_>
        <_>
          <internalNodes>
            0 -1 248 -2.9680286534130573e-03</internalNodes>
          <leafValues>
            3.9566358923912048e-01 -3.3881410956382751e-01</leafValues></_>
        <_>
          <internalNodes>
            0 -1 260 -3.4216635394841433e-03</internalNodes>
          <leafValues>
            2.4107082188129425e-01 -6.1407542228698730e-01</leafValues></_></weakClassifiers></_>
    <!-- stage 14 -->
    <_>
      <maxWeakCount>13</maxWeakCount>
      <stageThreshold>-5.3729242086410522e-01</stageThreshold>
      <weakClassifiers>
        <_>
          <internalNodes>
            0 -1 138 -1.3561886735260487e-03</internalNodes>
          <leafValues>
            -3.2663315534591675e-01 4.4897958636283875e-01</leafValues></_>
        <_>
          <internalNodes>
            0 -1 4 -1.4860627707093954e-03</internalNodes>
          <leafValues>
            -7.8386014699935913e-01 1.4519803225994110e-01</leafValues></_>
        <_>
          <internalNodes>
            0 -1 123 2.9424526728689671e-03</internalNodes>
          <leafValues>
            -1.4584101736545563e-01 7.7731841802597046e-01</leafValues></_>
        <_>
          <internalNodes>
            0 -1 218 -8.7695650290697813e-04</internalNodes>
          <leafValues>
            3.8861715793609619e-01 -3.4192943572998047e-01</leafValues></_>
        <_>
          <internalNodes>
            0 -1 41 6.4710127189755440e-03</internalNodes>
          <leafValues>
            -4.5912492275238037e-01 2.7949550747871399e-01</leafValues></_>
        <_>
          <internalNodes>
            0 -1 234 7.5223770181764849e-06</internalNodes>
          <leafValues>
            -3.7498959898948669e-01 3.7950956821441650e-01</leafValues></_>
        <_>
          <internalNodes>
            0 -1 84 -9.8418071866035461e-02</internalNodes>
          <leafValues>
            6.6520941257476807e-01 -2.2733981907367706e-01</leafValues></_>
        <_>
          <internalNodes>
            0 -1 174 2.7785073034465313e-03</internalNodes>
          <leafValues>
            -1.9031611084938049e-01 7.9827362298965454e-01</leafValues></_>
        <_>
          <internalNodes>
            0 -1 238 -5.2381437271833420e-03</internalNodes>
          <leafValues>
            6.7266213893890381e-01 -1.9640836119651794e-01</leafValues></_>
        <_>
          <internalNodes>
            0 -1 246 -4.6770859626121819e-05</internalNodes>
          <leafValues>
            -3.8069027662277222e-01 3.7118577957153320e-01</leafValues></_>
        <_>
          <internalNodes>
            0 -1 64 3.4311260096728802e-03</internalNodes>
          <leafValues>
            -2.1632012724876404e-01 6.0199409723281860e-01</leafValues></_>
        <_>
          <internalNodes>
            0 -1 94 6.1796145746484399e-04</internalNodes>
          <leafValues>
            -3.0768001079559326e-01 4.7884309291839600e-01</leafValues></_>
        <_>
          <internalNodes>
            0 -1 136 -3.4959979355335236e-02</internalNodes>
          <leafValues>
            -3.2499039173126221e-01 3.9323216676712036e-01</leafValues></_></weakClassifiers></_>
    <!-- stage 15 -->
    <_>
      <maxWeakCount>13</maxWeakCount>
      <stageThreshold>-6.2409442663192749e-01</stageThreshold>
      <weakClassifiers>
        <_>
          <internalNodes>
            0 -1 49 -1.1024094419553876e-04</internalNodes>
          <leafValues>
            -5.0458717346191406e-01 1.8085105717182159e-01</leafValues></_>
        <_>
          <internalNodes>
            0 -1 57 2.4673764710314572e-04</internalNodes>
          <leafValues>
            2.1267056465148926e-01 -5.0931465625762939e-01</leafValues></_>
        <_>
          <internalNodes>
            0 -1 172 -1.0519724339246750e-02</internalNodes>
          <leafValues>
            1.5586540102958679e-01 -9.0349221229553223e-01</leafValues></_>
        <_>
          <internalNodes>
            0 -1 243 -1.1298214085400105e-03</internalNodes>
          <leafValues>
            6.5530645847320557e-01 -2.2882466018199921e-01</leafValues></_>
        <_>
          <internalNodes>
            0 -1 227 -7.3866115417331457e-04</internalNodes>
          <leafValues>
            -6.0627985000610352e-01 1.7195047438144684e-01</leafValues></_>
        <_>
          <internalNodes>
            0 -1 228 1.5940587967634201e-02</internalNodes>
          <leafValues>
            -1.6054555773735046e-01 8.3188575506210327e-01</leafValues></_>
        <_>
          <internalNodes>
            0 -1 46 -1.2910873629152775e-03</internalNodes>
          <leafValues>
            6.3313311338424683e-01 -2.4016743898391724e-01</leafValues></_>
        <_>
          <internalNodes>
            0 -1 264 1.5191115380730480e-04</internalNodes>
          <leafValues>
            2.2875094413757324e-01 -6.2962526082992554e-01</leafValues></_>
        <_>
          <internalNodes>
            0 -1 88 9.1571382654365152e-06</internalNodes>
          <leafValues>
            -3.4557795524597168e-01 4.0088826417922974e-01</leafValues></_>
        <_>
          <internalNodes>
            0 -1 59 -1.9472965504974127e-03</internalNodes>
          <leafValues>
            5.2358812093734741e-01 -2.3687224090099335e-01</leafValues></_>
        <_>
          <internalNodes>
            0 -1 12 -8.6568878032267094e-04</internalNodes>
          <leafValues>
            -5.1312124729156494e-01 2.9366466403007507e-01</leafValues></_>
        <_>
          <internalNodes>
            0 -1 56 -6.1193206347525120e-03</internalNodes>
          <leafValues>
            3.8226622343063354e-01 -3.8356548547744751e-01</leafValues></_>
        <_>
          <internalNodes>
            0 -1 126 6.8026094231754541e-04</internalNodes>
          <leafValues>
            -2.2596865892410278e-01 5.7192808389663696e-01</leafValues></_></weakClassifiers></_>
    <!-- stage 16 -->
    <_>
      <maxWeakCount>11</maxWeakCount>
      <stageThreshold>-5.0302666425704956e-01</stageThreshold>
      <weakClassifiers>
        <_>
          <internalNodes>
            0 -1 5 -5.4678671061992645e-02</internalNodes>
          <leafValues>
            6.2318837642669678e-01 -2.8070175647735596e-01</leafValues></_>
        <_>
          <internalNodes>
            0 -1 29 1.2302041286602616e-03</internalNodes>
          <leafValues>
            1.7836968600749969e-01 -6.3941967487335205e-01</leafValues></_>
        <_>
          <internalNodes>
            0 -1 60 3.7161491811275482e-02</internalNodes>
          <leafValues>
            1.2556086480617523e-01 -8.1764978170394897e-01</leafValues></_>
        <_>
          <internalNodes>
            0 -1 262 2.6740711182355881e-03</internalNodes>
          <leafValues>
            1.1681059002876282e-01 -7.6538991928100586e-01</leafValues></_>
        <_>
          <internalNodes>
            0 -1 162 -9.6299918368458748e-04</internalNodes>
          <leafValues>
            4.3049693107604980e-01 -2.7134990692138672e-01</leafValues></_>
        <_>
          <internalNodes>
            0 -1 251 -1.0090946307172999e-04</internalNodes>
          <leafValues>
            -7.1092784404754639e-01 1.5847082436084747e-01</leafValues></_>
        <_>
          <internalNodes>
            0 -1 164 -1.7528023454360664e-04</internalNodes>
          <leafValues>
            4.1639614105224609e-01 -2.9970079660415649e-01</leafValues></_>
        <_>
          <internalNodes>
            0 -1 92 -7.6371041359379888e-05</internalNodes>
          <leafValues>
            -4.4932085275650024e-01 2.9902055859565735e-01</leafValues></_>
        <_>
          <internalNodes>
            0 -1 220 -2.1428506821393967e-02</internalNodes>
          <leafValues>
            8.6364406347274780e-01 -1.6847211122512817e-01</leafValues></_>
        <_>
          <internalNodes>
            0 -1 58 -2.2486518137156963e-03</internalNodes>
          <leafValues>
            2.4267576634883881e-01 -6.3310480117797852e-01</leafValues></_>
        <_>
          <internalNodes>
            0 -1 194 1.1678925948217511e-03</internalNodes>
          <leafValues>
            -3.2808417081832886e-01 5.1857632398605347e-01</leafValues></_></weakClassifiers></_>
    <!-- stage 17 -->
    <_>
      <maxWeakCount>14</maxWeakCount>
      <stageThreshold>-8.7698167562484741e-01</stageThreshold>
      <weakClassifiers>
        <_>
          <internalNodes>
            0 -1 67 2.3074453696608543e-02</internalNodes>
          <leafValues>
            8.7136931717395782e-02 -7.5000000000000000e-01</leafValues></_>
        <_>
          <internalNodes>
            0 -1 202 -6.4494571415707469e-04</internalNodes>
          <leafValues>
            3.6997619271278381e-01 -2.7114549279212952e-01</leafValues></_>
        <_>
          <internalNodes>
            0 -1 222 1.8726609414443374e-03</internalNodes>
          <leafValues>
            -1.4684741199016571e-01 6.5372741222381592e-01</leafValues></_>
        <_>
          <internalNodes>
            0 -1 192 -7.1678638050798327e-05</internalNodes>
          <leafValues>
            -4.2188033461570740e-01 2.6947230100631714e-01</leafValues></_>
        <_>
          <internalNodes>
            0 -1 36 4.8672976845409721e-05</internalNodes>
          <leafValues>
            2.3151767253875732e-01 -5.8719670772552490e-01</leafValues></_>
        <_>
          <internalNodes>
            0 -1 193 1.1049650609493256e-02</internalNodes>
          <leafValues>
            -2.0204976201057434e-01 8.6814671754837036e-01</leafValues></_>
        <_>
          <internalNodes>
            0 -1 9 -2.8391331434249878e-02</internalNodes>
          <leafValues>
            5.3485178947448730e-01 -1.9168400764465332e-01</leafValues></_>
        <_>
          <internalNodes>
            0 -1 113 1.2487109052017331e-04</internalNodes>
          <leafValues>
            2.1577875316143036e-01 -5.2406114339828491e-01</leafValues></_>
        <_>
          <internalNodes>
            0 -1 83 -5.0152349285781384e-04</internalNodes>
          <leafValues>
            5.7111757993698120e-01 -1.8136213719844818e-01</leafValues></_>
        <_>
          <internalNodes>
            0 -1 170 -6.5528750419616699e-03</internalNodes>
          <leafValues>
            7.2566503286361694e-01 -1.9053287804126740e-01</leafValues></_>
        <_>
          <internalNodes>
            0 -1 17 -4.8499743570573628e-05</internalNodes>
          <leafValues>
            -4.5666337013244629e-01 2.7368280291557312e-01</leafValues></_>
        <_>
          <internalNodes>
            0 -1 168 -3.5160011611878872e-04</internalNodes>
          <leafValues>
            4.5323002338409424e-01 -3.0672344565391541e-01</leafValues></_>
        <_>
          <internalNodes>
            0 -1 1 4.4561680406332016e-02</internalNodes>
          <leafValues>
            -3.2290220260620117e-01 4.5179134607315063e-01</leafValues></_>
        <_>
          <internalNodes>
            0 -1 181 5.9996114578098059e-04</internalNodes>
          <leafValues>
            -2.3880629241466522e-01 5.5311709642410278e-01</leafValues></_></weakClassifiers></_>
    <!-- stage 18 -->
    <_>
      <maxWeakCount>10</maxWeakCount>
      <stageThreshold>-3.7452498078346252e-01</stageThreshold>
      <weakClassifiers>
        <_>
          <internalNodes>
            0 -1 74 -4.1904849931597710e-03</internalNodes>
          <leafValues>
            3.6448597908020020e-01 -3.1578946113586426e-01</leafValues></_>
        <_>
          <internalNodes>
            0 -1 211 -5.9732417867053300e-05</internalNodes>
          <leafValues>
            -6.5121668577194214e-01 1.5931461751461029e-01</leafValues></_>
        <_>
          <internalNodes>
            0 -1 137 4.6126700937747955e-02</internalNodes>
          <leafValues>
            1.0162866115570068e-01 -9.2372697591781616e-01</leafValues></_>
        <_>
          <internalNodes>
            0 -1 129 -1.0963720269501209e-03</internalNodes>
          <leafValues>
            3.4034228324890137e-01 -3.3933633565902710e-01</leafValues></_>
        <_>
          <internalNodes>
            0 -1 78 3.4189060330390930e-02</internalNodes>
          <leafValues>
            -2.1677471697330475e-01 5.3985261917114258e-01</leafValues></_>
        <_>
          <internalNodes>
            0 -1 98 -9.5528624951839447e-03</internalNodes>
          <leafValues>
            -7.9465448856353760e-01 1.4133402705192566e-01</leafValues></_>
        <_>
          <internalNodes>
            0 -1 133 -5.4730311967432499e-04</internalNodes>
          <leafValues>
            4.6530908346176147e-01 -2.5977951288223267e-01</leafValues></_>
        <_>
          <internalNodes>
            0 -1 43 -3.3483272418379784e-03</internalNodes>
          <leafValues>
            -6.0728865861892700e-01 1.7456214129924774e-01</leafValues></_>
        <_>
          <internalNodes>
            0 -1 173 -6.6066533327102661e-04</internalNodes>
          <leafValues>
            5.7451689243316650e-01 -2.1171697974205017e-01</leafValues></_>
        <_>
          <internalNodes>
            0 -1 111 -2.6146008167415857e-03</internalNodes>
          <leafValues>
            -1.8607065081596375e-01 5.7141941785812378e-01</leafValues></_></weakClassifiers></_>
    <!-- stage 19 -->
    <_>
      <maxWeakCount>14</maxWeakCount>
      <stageThreshold>-5.9058177471160889e-01</stageThreshold>
      <weakClassifiers>
        <_>
          <internalNodes>
            0 -1 7 1.8553291447460651e-03</internalNodes>
          <leafValues>
            7.6923079788684845e-02 -8.0000001192092896e-01</leafValues></_>
        <_>
          <internalNodes>
            0 -1 232 6.1043174355290830e-05</internalNodes>
          <leafValues>
            1.7409819364547729e-01 -5.3945910930633545e-01</leafValues></_>
        <_>
          <internalNodes>
            0 -1 140 -3.0266968533396721e-03</internalNodes>
          <leafValues>
            -4.7842830419540405e-01 2.1500597894191742e-01</leafValues></_>
        <_>
          <internalNodes>
            0 -1 147 1.4581135474145412e-04</internalNodes>
          <leafValues>
            -2.6834595203399658e-01 4.0173929929733276e-01</leafValues></_>
        <_>
          <internalNodes>
            0 -1 241 -1.0462837526574731e-03</internalNodes>
          <leafValues>
            -3.8141375780105591e-01 2.8809580206871033e-01</leafValues></_>
        <_>
          <internalNodes>
            0 -1 118 -1.9817012548446655e-01</internalNodes>
          <leafValues>
            -4.3722230195999146e-01 2.3247383534908295e-01</leafValues></_>
        <_>
          <internalNodes>
            0 -1 185 -8.5794104961678386e-05</internalNodes>
          <leafValues>
            4.6425601840019226e-01 -2.6126158237457275e-01</leafValues></_>
        <_>
          <internalNodes>
            0 -1 122 1.4531650580465794e-02</internalNodes>
          <leafValues>
            -1.8047055602073669e-01 6.1923283338546753e-01</leafValues></_>
        <_>
          <internalNodes>
            0 -1 250 -8.9497661974746734e-05</internalNodes>
          <leafValues>
            -4.4405150413513184e-01 3.0791458487510681e-01</leafValues></_>
        <_>
          <internalNodes>
            0 -1 119 -7.5127701275050640e-03</internalNodes>
          <leafValues>
            7.8478717803955078e-01 -1.4265778660774231e-01</leafValues></_>
        <_>
          <internalNodes>
            0 -1 171 7.2962767444550991e-04</internalNodes>
          <leafValues>
            2.0540328323841095e-01 -7.0569723844528198e-01</leafValues></_>
        <_>
          <internalNodes>
            0 -1 91 -2.3456828203052282e-03</internalNodes>
          <leafValues>
            6.3176804780960083e-01 -2.2045217454433441e-01</leafValues></_>
        <_>
          <internalNodes>
            0 -1 254 -2.5589386932551861e-03</internalNodes>
          <leafValues>
            -7.4469143152236938e-01 1.8639902770519257e-01</leafValues></_>
        <_>
          <internalNodes>
            0 -1 195 4.9629481509327888e-04</internalNodes>
          <leafValues>
            2.1795475482940674e-01 -5.3001797199249268e-01</leafValues></_></weakClassifiers></_>
    <!-- stage 20 -->
    <_>
      <maxWeakCount>12</maxWeakCount>
      <stageThreshold>-4.8180353641510010e-01</stageThreshold>
      <weakClassifiers>
        <_>
          <internalNodes>
            0 -1 160 -1.3120690709911287e-04</internalNodes>
          <leafValues>
            -4.7169810533523560e-01 1.5183246135711670e-01</leafValues></_>
        <_>
          <internalNodes>
            0 -1 85 -1.5556528232991695e-03</internalNodes>
          <leafValues>
            3.9454549551010132e-01 -2.3406451940536499e-01</leafValues></_>
        <_>
          <internalNodes>
            0 -1 255 -2.4449097691103816e-04</internalNodes>
          <leafValues>
            -6.5767353773117065e-01 1.6340196132659912e-01</leafValues></_>
        <_>
          <internalNodes>
            0 -1 81 4.1659055277705193e-03</internalNodes>
          <leafValues>
            -1.8654568493366241e-01 5.5467176437377930e-01</leafValues></_>
        <_>
          <internalNodes>
            0 -1 183 -2.3301722831092775e-04</internalNodes>
          <leafValues>
            4.1129347681999207e-01 -3.0597034096717834e-01</leafValues></_>
        <_>
          <internalNodes>
            0 -1 177 -2.3563485592603683e-02</internalNodes>
          <leafValues>
            -7.3309910297393799e-01 1.9096347689628601e-01</leafValues></_>
        <_>
          <internalNodes>
            0 -1 155 1.1482471600174904e-03</internalNodes>
          <leafValues>
            -3.0607324838638306e-01 4.1288259625434875e-01</leafValues></_>
        <_>
          <internalNodes>
            0 -1 82 -1.7566035967320204e-03</internalNodes>
          <leafValues>
            -7.0156109333038330e-01 2.1514660120010376e-01</leafValues></_>
        <_>
          <internalNodes>
            0 -1 154 -5.6535616517066956e-02</internalNodes>
          <leafValues>
            4.3792319297790527e-01 -3.1649866700172424e-01</leafValues></_>
        <_>
          <internalNodes>
            0 -1 144 6.8983608798589557e-05</internalNodes>
          <leafValues>
            2.6668903231620789e-01 -5.0270479917526245e-01</leafValues></_>
        <_>
          <internalNodes>
            0 -1 150 -2.7015842497348785e-03</internalNodes>
          <leafValues>
            -7.7239668369293213e-01 1.7818592488765717e-01</leafValues></_>
        <_>
          <internalNodes>
            0 -1 166 3.7048822268843651e-03</internalNodes>
          <leafValues>
            -2.4843251705169678e-01 5.6746608018875122e-01</leafValues></_></weakClassifiers></_>
    <!-- stage 21 -->
    <_>
      <maxWeakCount>11</maxWeakCount>
      <stageThreshold>-7.0935922861099243e-01</stageThreshold>
      <weakClassifiers>
        <_>
          <internalNodes>
            0 -1 127 4.5636632421519607e-05</internalNodes>
          <leafValues>
            -4.1176471114158630e-01 2.1739129722118378e-01</leafValues></_>
        <_>
          <internalNodes>
            0 -1 226 -8.8372291065752506e-04</internalNodes>
          <leafValues>
            -5.5812078714370728e-01 1.9388791918754578e-01</leafValues></_>
        <_>
          <internalNodes>
            0 -1 149 1.7239560838788748e-03</internalNodes>
          <leafValues>
            -2.3949693143367767e-01 5.1536387205123901e-01</leafValues></_>
        <_>
          <internalNodes>
            0 -1 130 -1.3952291337773204e-03</internalNodes>
          <leafValues>
            3.3114302158355713e-01 -3.6827746033668518e-01</leafValues></_>
        <_>
          <internalNodes>
            0 -1 105 4.7591328620910645e-03</internalNodes>
          <leafValues>
            -2.5222948193550110e-01 5.1522296667098999e-01</leafValues></_>
        <_>
          <internalNodes>
            0 -1 258 3.7542995996773243e-03</internalNodes>
          <leafValues>
            2.2114001214504242e-01 -7.4501985311508179e-01</leafValues></_>
        <_>
          <internalNodes>
            0 -1 19 -1.0786414146423340e-02</internalNodes>
          <leafValues>
            -8.4388899803161621e-01 1.0451787710189819e-01</leafValues></_>
        <_>
          <internalNodes>
            0 -1 169 -4.4868990778923035e-02</internalNodes>
          <leafValues>
            -8.8354527950286865e-01 1.3857086002826691e-01</leafValues></_>
        <_>
          <internalNodes>
            0 -1 236 -4.8617771826684475e-03</internalNodes>
          <leafValues>
            6.3903939723968506e-01 -2.2744563221931458e-01</leafValues></_>
        <_>
          <internalNodes>
            0 -1 257 1.0165986896026880e-04</internalNodes>
          <leafValues>
            2.5096577405929565e-01 -4.8007309436798096e-01</leafValues></_>
        <_>
          <internalNodes>
            0 -1 80 4.3926592916250229e-03</internalNodes>
          <leafValues>
            -1.4304940402507782e-01 9.4890451431274414e-01</leafValues></_></weakClassifiers></_>
    <!-- stage 22 -->
    <_>
      <maxWeakCount>13</maxWeakCount>
      <stageThreshold>-5.4277050495147705e-01</stageThreshold>
      <weakClassifiers>
        <_>
          <internalNodes>
            0 -1 237 -2.9615178937092423e-04</internalNodes>
          <leafValues>
            4.7222220897674561e-01 -2.4444444477558136e-01</leafValues></_>
        <_>
          <internalNodes>
            0 -1 179 -4.4303550384938717e-03</internalNodes>
          <leafValues>
            3.2011973857879639e-01 -3.2113024592399597e-01</leafValues></_>
        <_>
          <internalNodes>
            0 -1 18 4.0246912976726890e-04</internalNodes>
          <leafValues>
            -2.7172783017158508e-01 3.8046827912330627e-01</leafValues></_>
        <_>
          <internalNodes>
            0 -1 77 2.8488639509305358e-04</internalNodes>
          <leafValues>
            1.3740029931068420e-01 -7.2126924991607666e-01</leafValues></_>
        <_>
          <internalNodes>
            0 -1 167 4.0166079998016357e-02</internalNodes>
          <leafValues>
            1.6751036047935486e-01 -7.7845066785812378e-01</leafValues></_>
        <_>
          <internalNodes>
            0 -1 157 3.9612496038898826e-04</internalNodes>
          <leafValues>
            -2.2897772490978241e-01 6.2157237529754639e-01</leafValues></_>
        <_>
          <internalNodes>
            0 -1 109 -3.9058434776961803e-03</internalNodes>
          <leafValues>
            4.2276179790496826e-01 -3.1937873363494873e-01</leafValues></_>
        <_>
          <internalNodes>
            0 -1 10 3.3704422094160691e-05</internalNodes>
          <leafValues>
            3.1388822197914124e-01 -4.3758180737495422e-01</leafValues></_>
        <_>
          <internalNodes>
            0 -1 219 4.9653790483716875e-05</internalNodes>
          <leafValues>
            2.9530978202819824e-01 -4.4937551021575928e-01</leafValues></_>
        <_>
          <internalNodes>
            0 -1 79 6.8529173731803894e-03</internalNodes>
          <leafValues>
            -2.5263711810112000e-01 5.3855544328689575e-01</leafValues></_>
        <_>
          <internalNodes>
            0 -1 184 -1.9945781677961349e-03</internalNodes>
          <leafValues>
            1.6084037721157074e-01 -8.8634645938873291e-01</leafValues></_>
        <_>
          <internalNodes>
            0 -1 32 2.7041308931075037e-04</internalNodes>
          <leafValues>
            -2.0527005195617676e-01 7.7289021015167236e-01</leafValues></_>
        <_>
          <internalNodes>
            0 -1 68 -6.1184722930192947e-02</internalNodes>
          <leafValues>
            -2.7501708269119263e-01 4.7289308905601501e-01</leafValues></_></weakClassifiers></_>
    <!-- stage 23 -->
    <_>
      <maxWeakCount>14</maxWeakCount>
      <stageThreshold>-6.3000267744064331e-01</stageThreshold>
      <weakClassifiers>
        <_>
          <internalNodes>
            0 -1 47 -1.7622259911149740e-03</internalNodes>
          <leafValues>
            6.4516127109527588e-02 -7.5510203838348389e-01</leafValues></_>
        <_>
          <internalNodes>
            0 -1 213 5.1112789660692215e-03</internalNodes>
          <leafValues>
            9.9126018583774567e-02 -7.6893156766891479e-01</leafValues></_>
        <_>
          <internalNodes>
            0 -1 230 9.3886943068355322e-04</internalNodes>
          <leafValues>
            -2.6546114683151245e-01 4.0831401944160461e-01</leafValues></_>
        <_>
          <internalNodes>
            0 -1 199 -5.7505308650434017e-03</internalNodes>
          <leafValues>
            -8.1641316413879395e-01 1.5795095264911652e-01</leafValues></_>
        <_>
          <internalNodes>
            0 -1 14 -3.9584515616297722e-03</internalNodes>
          <leafValues>
            -3.4847855567932129e-01 3.4831151366233826e-01</leafValues></_>
        <_>
          <internalNodes>
            0 -1 63 -1.4846261183265597e-04</internalNodes>
          <leafValues>
            -4.6161562204360962e-01 2.5514128804206848e-01</leafValues></_>
        <_>
          <internalNodes>
            0 -1 180 -9.3036741018295288e-03</internalNodes>
          <leafValues>
            5.5637538433074951e-01 -2.4413447082042694e-01</leafValues></_>
        <_>
          <internalNodes>
            0 -1 120 6.3449013396166265e-05</internalNodes>
          <leafValues>
            3.1386926770210266e-01 -3.6086869239807129e-01</leafValues></_>
        <_>
          <internalNodes>
            0 -1 163 -8.4800394251942635e-03</internalNodes>
          <leafValues>
            1.7631363868713379e-01 -6.6109257936477661e-01</leafValues></_>
        <_>
          <internalNodes>
            0 -1 86 -8.1292813410982490e-04</internalNodes>
          <leafValues>
            3.5018861293792725e-01 -3.2895028591156006e-01</leafValues></_>
        <_>
          <internalNodes>
            0 -1 125 -1.2687206617556512e-04</internalNodes>
          <leafValues>
            4.4148120284080505e-01 -2.5045004487037659e-01</leafValues></_>
        <_>
          <internalNodes>
            0 -1 116 -8.0772372893989086e-04</internalNodes>
          <leafValues>
            -7.3431318998336792e-01 1.4337956905364990e-01</leafValues></_>
        <_>
          <internalNodes>
            0 -1 20 -3.3594244159758091e-03</internalNodes>
          <leafValues>
            2.5162041187286377e-01 -5.3257173299789429e-01</leafValues></_>
        <_>
          <internalNodes>
            0 -1 215 -2.4896185845136642e-02</internalNodes>
          <leafValues>
            -6.1452698707580566e-01 2.1884645521640778e-01</leafValues></_></weakClassifiers></_>
    <!-- stage 24 -->
    <_>
      <maxWeakCount>15</maxWeakCount>
      <stageThreshold>-8.8398039340972900e-01</stageThreshold>
      <weakClassifiers>
        <_>
          <internalNodes>
            0 -1 107 -3.2306374050676823e-03</internalNodes>
          <leafValues>
            3.7735849618911743e-01 -3.1937173008918762e-01</leafValues></_>
        <_>
          <internalNodes>
            0 -1 102 -6.2794266268610954e-03</internalNodes>
          <leafValues>
            -2.6488888263702393e-01 3.7866166234016418e-01</leafValues></_>
        <_>
          <internalNodes>
            0 -1 24 3.2205791212618351e-03</internalNodes>
          <leafValues>
            -2.1672284603118896e-01 5.3317487239837646e-01</leafValues></_>
        <_>
          <internalNodes>
            0 -1 165 2.8636213392019272e-03</internalNodes>
          <leafValues>
            -1.9864630699157715e-01 5.5749011039733887e-01</leafValues></_>
        <_>
          <internalNodes>
            0 -1 151 -3.1400064472109079e-04</internalNodes>
          <leafValues>
            2.8132563829421997e-01 -3.7994232773780823e-01</leafValues></_>
        <_>
          <internalNodes>
            0 -1 54 -5.0550832384033129e-05</internalNodes>
          <leafValues>
            -4.7297984361648560e-01 2.6848325133323669e-01</leafValues></_>
        <_>
          <internalNodes>
            0 -1 253 -7.4809156358242035e-03</internalNodes>
          <leafValues>
            6.1863529682159424e-01 -1.8283210694789886e-01</leafValues></_>
        <_>
          <internalNodes>
            0 -1 62 4.0866661584004760e-04</internalNodes>
          <leafValues>
            -3.8683235645294189e-01 2.9114651679992676e-01</leafValues></_>
        <_>
          <internalNodes>
            0 -1 110 1.6708815470337868e-02</internalNodes>
          <leafValues>
            -1.8360516428947449e-01 6.6072094440460205e-01</leafValues></_>
        <_>
          <internalNodes>
            0 -1 239 8.1010663416236639e-04</internalNodes>
          <leafValues>
            3.6078196763992310e-01 -3.3302527666091919e-01</leafValues></_>
        <_>
          <internalNodes>
            0 -1 208 4.2809714796021581e-04</internalNodes>
          <leafValues>
            -1.5699137747287750e-01 8.5628771781921387e-01</leafValues></_>
        <_>
          <internalNodes>
            0 -1 28 -4.8952158540487289e-03</internalNodes>
          <leafValues>
            7.9348134994506836e-01 -1.6516909003257751e-01</leafValues></_>
        <_>
          <internalNodes>
            0 -1 106 -2.8108203783631325e-02</internalNodes>
          <leafValues>
            -6.8184036016464233e-01 1.8305136263370514e-01</leafValues></_>
        <_>
          <internalNodes>
            0 -1 114 -4.6517211012542248e-04</internalNodes>
          <leafValues>
            4.5182770490646362e-01 -3.0956089496612549e-01</leafValues></_>
        <_>
          <internalNodes>
            0 -1 72 1.3593465555459261e-03</internalNodes>
          <leafValues>
            -3.5439044237136841e-01 3.7575766444206238e-01</leafValues></_></weakClassifiers></_></stages>
  <features>
    <_>
      <rects>
        <_>
          0 0 16 22 -1.</_>
        <_>
          4 0 8 22 2.</_></rects>
      <tilted>0</tilted></_>
    <_>
      <rects>
        <_>
          0 0 26 18 -1.</_>
        <_>
          0 0 13 9 2.</_>
        <_>
          13 9 13 9 2.</_></rects>
      <tilted>0</tilted></_>
    <_>
      <rects>
        <_>
          0 1 1 12 -1.</_>
        <_>
          0 4 1 6 2.</_></rects>
      <tilted>0</tilted></_>
    <_>
      <rects>
        <_>
          0 1 16 8 -1.</_>
        <_>
          0 3 16 4 2.</_></rects>
      <tilted>0</tilted></_>
    <_>
      <rects>
        <_>
          0 2 2 8 -1.</_>
        <_>
          1 2 1 8 2.</_></rects>
      <tilted>0</tilted></_>
    <_>
      <rects>
        <_>
          0 3 6 25 -1.</_>
        <_>
          3 3 3 25 2.</_></rects>
      <tilted>0</tilted></_>
    <_>
      <rects>
        <_>
          0 3 28 14 -1.</_>
        <_>
          7 3 14 14 2.</_></rects>
      <tilted>0</tilted></_>
    <_>
      <rects>
        <_>
          0 4 2 10 -1.</_>
        <_>
          1 4 1 10 2.</_></rects>
      <tilted>0</tilted></_>
    <_>
      <rects>
        <_>
          0 6 1 12 -1.</_>
        <_>
          0 10 1 4 2.</_></rects>
      <tilted>0</tilted></_>
    <_>
      <rects>
        <_>
          0 6 12 6 -1.</_>
        <_>
          4 8 4 2 9.</_></rects>
      <tilted>0</tilted></_>
    <_>
      <rects>
        <_>
          0 7 2 6 -1.</_>
        <_>
          0 7 1 3 2.</_>
        <_>
          1 10 1 3 2.</_></rects>
      <tilted>0</tilted></_>
    <_>
      <rects>
        <_>
          0 7 12 8 -1.</_>
        <_>
          0 9 12 4 2.</_></rects>
      <tilted>0</tilted></_>
    <_>
      <rects>
        <_>
          0 8 1 6 -1.</_>
        <_>
          0 11 1 3 2.</_></rects>
      <tilted>0</tilted></_>
    <_>
      <rects>
        <_>
          0 8 8 22 -1.</_>
        <_>
          4 8 4 22 2.</_></rects>
      <tilted>0</tilted></_>
    <_>
      <rects>
        <_>
          0 8 27 12 -1.</_>
        <_>
          0 11 27 6 2.</_></rects>
      <tilted>0</tilted></_>
    <_>
      <rects>
        <_>
          0 9 30 18 -1.</_>
        <_>
          0 15 30 6 2.</_></rects>
      <tilted>0</tilted></_>
    <_>
      <rects>
        <_>
          0 10 2 4 -1.</_>
        <_>
          0 11 2 2 2.</_></rects>
      <tilted>0</tilted></_>
    <_>
      <rects>
        <_>
          0 13 1 4 -1.</_>
        <_>
          0 14 1 2 2.</_></rects>
      <tilted>0</tilted></_>
    <_>
      <rects>
        <_>
          0 13 4 4 -1.</_>
        <_>
          1 13 2 4 2.</_></rects>
      <tilted>0</tilted></_>
    <_>
      <rects>
        <_>
          0 16 3 3 -1.</_>
        <_>
          1 16 1 3 2.</_></rects>
      <tilted>0</tilted></_>
    <_>
      <rects>
        <_>
          0 17 2 3 -1.</_>
        <_>
          0 18 2 1 2.</_></rects>
      <tilted>0</tilted></_>
    <_>
      <rects>
        <_>
          0 22 1 8 -1.</_>
        <_>
          0 24 1 4 2.</_></rects>
      <tilted>0</tilted></_>
    <_>
      <rects>
        <_>
          0 26 8 2 -1.</_>
        <_>
          0 27 8 1 2.</_></rects>
      <tilted>0</tilted></_>
    <_>
      <rects>
        <_>
          1 0 16 8 -1.</_>
        <_>
          1 2 16 4 2.</_></rects>
      <tilted>0</tilted></_>
    <_>
      <rects>
        <_>
          1 2 28 4 -1.</_>
        <_>
          8 2 14 4 2.</_></rects>
      <tilted>0</tilted></_>
    <_>
      <rects>
        <_>
          1 3 12 27 -1.</_>
        <_>
          7 3 6 27 2.</_></rects>
      <tilted>0</tilted></_>
    <_>
      <rects>
        <_>
          1 6 5 2 -1.</_>
        <_>
          1 7 5 1 2.</_></rects>
      <tilted>0</tilted></_>
    <_>
      <rects>
        <_>
          1 12 8 11 -1.</_>
        <_>
          3 12 4 11 2.</_></rects>
      <tilted>0</tilted></_>
    <_>
      <rects>
        <_>
          1 18 4 8 -1.</_>
        <_>
          1 18 2 4 2.</_>
        <_>
          3 22 2 4 2.</_></rects>
      <tilted>0</tilted></_>
    <_>
      <rects>
        <_>
          1 22 4 1 -1.</_>
        <_>
          2 23 2 1 2.</_></rects>
      <tilted>1</tilted></_>
    <_>
      <rects>
        <_>
          1 23 22 6 -1.</_>
        <_>
          1 23 11 3 2.</_>
        <_>
          12 26 11 3 2.</_></rects>
      <tilted>0</tilted></_>
    <_>
      <rects>
        <_>
          1 24 2 1 -1.</_>
        <_>
          1 24 1 1 2.</_></rects>
      <tilted>1</tilted></_>
    <_>
      <rects>
        <_>
          1 24 4 3 -1.</_>
        <_>
          3 24 2 3 2.</_></rects>
      <tilted>0</tilted></_>
    <_>
      <rects>
        <_>
          1 27 2 1 -1.</_>
        <_>
          1 27 1 1 2.</_></rects>
      <tilted>1</tilted></_>
    <_>
      <rects>
        <_>
          1 27 2 3 -1.</_>
        <_>
          2 27 1 3 2.</_></rects>
      <tilted>0</tilted></_>
    <_>
      <rects>
        <_>
          1 27 4 2 -1.</_>
        <_>
          3 27 2 2 2.</_></rects>
      <tilted>0</tilted></_>
    <_>
      <rects>
        <_>
          1 28 2 1 -1.</_>
        <_>
          2 28 1 1 2.</_></rects>
      <tilted>0</tilted></_>
    <_>
      <rects>
        <_>
          1 28 20 2 -1.</_>
        <_>
          1 29 20 1 2.</_></rects>
      <tilted>0</tilted></_>
    <_>
      <rects>
        <_>
          1 29 8 1 -1.</_>
        <_>
          3 29 4 1 2.</_></rects>
      <tilted>0</tilted></_>
    <_>
      <rects>
        <_>
          2 0 4 1 -1.</_>
        <_>
          3 0 2 1 2.</_></rects>
      <tilted>0</tilted></_>
    <_>
      <rects>
        <_>
          2 5 28 22 -1.</_>
        <_>
          9 5 14 22 2.</_></rects>
      <tilted>0</tilted></_>
    <_>
      <rects>
        <_>
          2 6 22 2 -1.</_>
        <_>
          2 6 11 2 2.</_></rects>
      <tilted>1</tilted></_>
    <_>
      <rects>
        <_>
          2 13 8 5 -1.</_>
        <_>
          4 13 4 5 2.</_></rects>
      <tilted>0</tilted></_>
    <_>
      <rects>
        <_>
          2 14 25 4 -1.</_>
        <_>
          2 15 25 2 2.</_></rects>
      <tilted>0</tilted></_>
    <_>
      <rects>
        <_>
          2 15 27 15 -1.</_>
        <_>
          2 20 27 5 2.</_></rects>
      <tilted>0</tilted></_>
    <_>
      <rects>
        <_>
          2 19 14 6 -1.</_>
        <_>
          2 21 14 2 2.</_></rects>
      <tilted>0</tilted></_>
    <_>
      <rects>
        <_>
          2 22 16 2 -1.</_>
        <_>
          2 23 16 1 2.</_></rects>
      <tilted>0</tilted></_>
    <_>
      <rects>
        <_>
          2 24 1 6 -1.</_>
        <_>
          2 26 1 2 2.</_></rects>
      <tilted>0</tilted></_>
    <_>
      <rects>
        <_>
          3 0 2 2 -1.</_>
        <_>
          3 0 1 1 2.</_>
        <_>
          4 1 1 1 2.</_></rects>
      <tilted>0</tilted></_>
    <_>
      <rects>
        <_>
          3 0 4 1 -1.</_>
        <_>
          4 1 2 1 2.</_></rects>
      <tilted>1</tilted></_>
    <_>
      <rects>
        <_>
          3 0 9 14 -1.</_>
        <_>
          3 7 9 7 2.</_></rects>
      <tilted>0</tilted></_>
    <_>
      <rects>
        <_>
          3 1 2 12 -1.</_>
        <_>
          3 1 1 6 2.</_>
        <_>
          4 7 1 6 2.</_></rects>
      <tilted>0</tilted></_>
    <_>
      <rects>
        <_>
          3 11 7 4 -1.</_>
        <_>
          3 13 7 2 2.</_></rects>
      <tilted>0</tilted></_>
    <_>
      <rects>
        <_>
          3 15 4 3 -1.</_>
        <_>
          4 15 2 3 2.</_></rects>
      <tilted>0</tilted></_>
    <_>
      <rects>
        <_>
          3 20 2 2 -1.</_>
        <_>
          3 21 2 1 2.</_></rects>
      <tilted>0</tilted></_>
    <_>
      <rects>
        <_>
          3 21 1 2 -1.</_>
        <_>
          3 21 1 1 2.</_></rects>
      <tilted>1</tilted></_>
    <_>
      <rects>
        <_>
          3 21 13 8 -1.</_>
        <_>
          3 23 13 4 2.</_></rects>
      <tilted>0</tilted></_>
    <_>
      <rects>
        <_>
          3 24 3 3 -1.</_>
        <_>
          4 25 1 3 3.</_></rects>
      <tilted>1</tilted></_>
    <_>
      <rects>
        <_>
          3 28 3 2 -1.</_>
        <_>
          4 28 1 2 2.</_></rects>
      <tilted>0</tilted></_>
    <_>
      <rects>
        <_>
          4 0 6 2 -1.</_>
        <_>
          6 2 2 2 3.</_></rects>
      <tilted>1</tilted></_>
    <_>
      <rects>
        <_>
          4 0 24 3 -1.</_>
        <_>
          12 1 8 1 9.</_></rects>
      <tilted>0</tilted></_>
    <_>
      <rects>
        <_>
          4 1 13 4 -1.</_>
        <_>
          4 2 13 2 2.</_></rects>
      <tilted>0</tilted></_>
    <_>
      <rects>
        <_>
          4 5 2 20 -1.</_>
        <_>
          4 5 1 10 2.</_>
        <_>
          5 15 1 10 2.</_></rects>
      <tilted>0</tilted></_>
    <_>
      <rects>
        <_>
          4 5 14 3 -1.</_>
        <_>
          4 5 7 3 2.</_></rects>
      <tilted>1</tilted></_>
    <_>
      <rects>
        <_>
          4 7 6 6 -1.</_>
        <_>
          4 7 3 3 2.</_>
        <_>
          7 10 3 3 2.</_></rects>
      <tilted>0</tilted></_>
    <_>
      <rects>
        <_>
          4 8 6 10 -1.</_>
        <_>
          4 8 3 5 2.</_>
        <_>
          7 13 3 5 2.</_></rects>
      <tilted>0</tilted></_>
    <_>
      <rects>
        <_>
          4 11 8 3 -1.</_>
        <_>
          6 13 4 3 2.</_></rects>
      <tilted>1</tilted></_>
    <_>
      <rects>
        <_>
          4 12 26 8 -1.</_>
        <_>
          4 14 26 4 2.</_></rects>
      <tilted>0</tilted></_>
    <_>
      <rects>
        <_>
          4 14 9 14 -1.</_>
        <_>
          7 14 3 14 2.</_></rects>
      <tilted>0</tilted></_>
    <_>
      <rects>
        <_>
          4 16 4 2 -1.</_>
        <_>
          5 16 2 2 2.</_></rects>
      <tilted>0</tilted></_>
    <_>
      <rects>
        <_>
          4 18 23 12 -1.</_>
        <_>
          4 21 23 6 2.</_></rects>
      <tilted>0</tilted></_>
    <_>
      <rects>
        <_>
          4 24 3 2 -1.</_>
        <_>
          5 25 1 2 3.</_></rects>
      <tilted>1</tilted></_>
    <_>
      <rects>
        <_>
          4 26 10 2 -1.</_>
        <_>
          4 27 10 1 2.</_></rects>
      <tilted>0</tilted></_>
    <_>
      <rects>
        <_>
          4 26 21 4 -1.</_>
        <_>
          4 28 21 2 2.</_></rects>
      <tilted>0</tilted></_>
    <_>
      <rects>
        <_>
          4 26 23 4 -1.</_>
        <_>
          4 27 23 2 2.</_></rects>
      <tilted>0</tilted></_>
    <_>
      <rects>
        <_>
          4 26 23 4 -1.</_>
        <_>
          4 28 23 2 2.</_></rects>
      <tilted>0</tilted></_>
    <_>
      <rects>
        <_>
          4 27 2 3 -1.</_>
        <_>
          5 27 1 3 2.</_></rects>
      <tilted>0</tilted></_>
    <_>
      <rects>
        <_>
          5 0 4 1 -1.</_>
        <_>
          6 0 2 1 2.</_></rects>
      <tilted>0</tilted></_>
    <_>
      <rects>
        <_>
          5 1 12 14 -1.</_>
        <_>
          5 1 6 7 2.</_>
        <_>
          11 8 6 7 2.</_></rects>
      <tilted>0</tilted></_>
    <_>
      <rects>
        <_>
          5 11 6 14 -1.</_>
        <_>
          5 11 3 7 2.</_>
        <_>
          8 18 3 7 2.</_></rects>
      <tilted>0</tilted></_>
    <_>
      <rects>
        <_>
          5 17 4 6 -1.</_>
        <_>
          5 17 2 3 2.</_>
        <_>
          7 20 2 3 2.</_></rects>
      <tilted>0</tilted></_>
    <_>
      <rects>
        <_>
          5 19 16 7 -1.</_>
        <_>
          9 19 8 7 2.</_></rects>
      <tilted>0</tilted></_>
    <_>
      <rects>
        <_>
          5 23 4 7 -1.</_>
        <_>
          6 23 2 7 2.</_></rects>
      <tilted>0</tilted></_>
    <_>
      <rects>
        <_>
          5 25 4 4 -1.</_>
        <_>
          5 25 2 2 2.</_>
        <_>
          7 27 2 2 2.</_></rects>
      <tilted>0</tilted></_>
    <_>
      <rects>
        <_>
          6 0 9 24 -1.</_>
        <_>
          9 8 3 8 9.</_></rects>
      <tilted>0</tilted></_>
    <_>
      <rects>
        <_>
          6 1 19 4 -1.</_>
        <_>
          6 2 19 2 2.</_></rects>
      <tilted>0</tilted></_>
    <_>
      <rects>
        <_>
          6 3 11 4 -1.</_>
        <_>
          6 4 11 2 2.</_></rects>
      <tilted>0</tilted></_>
    <_>
      <rects>
        <_>
          6 10 6 4 -1.</_>
        <_>
          8 12 2 4 3.</_></rects>
      <tilted>1</tilted></_>
    <_>
      <rects>
        <_>
          6 12 4 4 -1.</_>
        <_>
          6 14 4 2 2.</_></rects>
      <tilted>0</tilted></_>
    <_>
      <rects>
        <_>
          6 20 6 1 -1.</_>
        <_>
          8 20 2 1 2.</_></rects>
      <tilted>0</tilted></_>
    <_>
      <rects>
        <_>
          6 25 4 5 -1.</_>
        <_>
          7 25 2 5 2.</_></rects>
      <tilted>0</tilted></_>
    <_>
      <rects>
        <_>
          6 26 20 2 -1.</_>
        <_>
          6 26 10 1 2.</_>
        <_>
          16 27 10 1 2.</_></rects>
      <tilted>0</tilted></_>
    <_>
      <rects>
        <_>
          7 0 3 1 -1.</_>
        <_>
          8 1 1 1 3.</_></rects>
      <tilted>1</tilted></_>
    <_>
      <rects>
        <_>
          7 0 8 7 -1.</_>
        <_>
          7 0 4 7 2.</_></rects>
      <tilted>1</tilted></_>
    <_>
      <rects>
        <_>
          7 5 6 1 -1.</_>
        <_>
          9 7 2 1 3.</_></rects>
      <tilted>1</tilted></_>
    <_>
      <rects>
        <_>
          7 5 19 3 -1.</_>
        <_>
          6 6 19 1 3.</_></rects>
      <tilted>1</tilted></_>
    <_>
      <rects>
        <_>
          7 11 6 2 -1.</_>
        <_>
          9 13 2 2 3.</_></rects>
      <tilted>1</tilted></_>
    <_>
      <rects>
        <_>
          7 26 15 4 -1.</_>
        <_>
          7 28 15 2 2.</_></rects>
      <tilted>0</tilted></_>
    <_>
      <rects>
        <_>
          7 29 16 1 -1.</_>
        <_>
          15 29 8 1 2.</_></rects>
      <tilted>0</tilted></_>
    <_>
      <rects>
        <_>
          8 4 22 4 -1.</_>
        <_>
          8 4 11 2 2.</_>
        <_>
          19 6 11 2 2.</_></rects>
      <tilted>0</tilted></_>
    <_>
      <rects>
        <_>
          8 6 14 8 -1.</_>
        <_>
          8 8 14 4 2.</_></rects>
      <tilted>0</tilted></_>
    <_>
      <rects>
        <_>
          8 9 20 8 -1.</_>
        <_>
          13 9 10 8 2.</_></rects>
      <tilted>0</tilted></_>
    <_>
      <rects>
        <_>
          8 10 6 2 -1.</_>
        <_>
          10 10 2 2 2.</_></rects>
      <tilted>0</tilted></_>
    <_>
      <rects>
        <_>
          8 12 6 8 -1.</_>
        <_>
          8 12 3 4 2.</_>
        <_>
          11 16 3 4 2.</_></rects>
      <tilted>0</tilted></_>
    <_>
      <rects>
        <_>
          8 14 3 1 -1.</_>
        <_>
          9 14 1 1 2.</_></rects>
      <tilted>0</tilted></_>
    <_>
      <rects>
        <_>
          8 16 5 8 -1.</_>
        <_>
          6 18 5 4 2.</_></rects>
      <tilted>1</tilted></_>
    <_>
      <rects>
        <_>
          8 21 15 8 -1.</_>
        <_>
          8 23 15 4 2.</_></rects>
      <tilted>0</tilted></_>
    <_>
      <rects>
        <_>
          8 26 12 4 -1.</_>
        <_>
          8 27 12 2 2.</_></rects>
      <tilted>0</tilted></_>
    <_>
      <rects>
        <_>
          9 0 20 22 -1.</_>
        <_>
          9 11 20 11 2.</_></rects>
      <tilted>0</tilted></_>
    <_>
      <rects>
        <_>
          9 3 6 16 -1.</_>
        <_>
          9 3 3 8 2.</_>
        <_>
          12 11 3 8 2.</_></rects>
      <tilted>0</tilted></_>
    <_>
      <rects>
        <_>
          9 5 6 9 -1.</_>
        <_>
          6 8 6 3 3.</_></rects>
      <tilted>1</tilted></_>
    <_>
      <rects>
        <_>
          9 11 3 3 -1.</_>
        <_>
          9 12 3 1 2.</_></rects>
      <tilted>0</tilted></_>
    <_>
      <rects>
        <_>
          9 13 3 2 -1.</_>
        <_>
          9 13 3 1 2.</_></rects>
      <tilted>1</tilted></_>
    <_>
      <rects>
        <_>
          9 22 3 4 -1.</_>
        <_>
          10 23 1 4 3.</_></rects>
      <tilted>1</tilted></_>
    <_>
      <rects>
        <_>
          9 23 12 2 -1.</_>
        <_>
          9 23 6 1 2.</_>
        <_>
          15 24 6 1 2.</_></rects>
      <tilted>0</tilted></_>
    <_>
      <rects>
        <_>
          9 24 10 4 -1.</_>
        <_>
          9 25 10 2 2.</_></rects>
      <tilted>0</tilted></_>
    <_>
      <rects>
        <_>
          9 26 4 4 -1.</_>
        <_>
          10 26 2 4 2.</_></rects>
      <tilted>0</tilted></_>
    <_>
      <rects>
        <_>
          10 0 9 15 -1.</_>
        <_>
          10 5 9 5 2.</_></rects>
      <tilted>0</tilted></_>
    <_>
      <rects>
        <_>
          10 6 15 19 -1.</_>
        <_>
          15 6 5 19 2.</_></rects>
      <tilted>0</tilted></_>
    <_>
      <rects>
        <_>
          10 9 17 3 -1.</_>
        <_>
          9 10 17 1 3.</_></rects>
      <tilted>1</tilted></_>
    <_>
      <rects>
        <_>
          10 11 8 1 -1.</_>
        <_>
          12 11 4 1 2.</_></rects>
      <tilted>0</tilted></_>
    <_>
      <rects>
        <_>
          10 13 16 6 -1.</_>
        <_>
          10 13 8 3 2.</_>
        <_>
          18 16 8 3 2.</_></rects>
      <tilted>0</tilted></_>
    <_>
      <rects>
        <_>
          11 1 6 11 -1.</_>
        <_>
          13 3 2 11 3.</_></rects>
      <tilted>1</tilted></_>
    <_>
      <rects>
        <_>
          11 2 13 4 -1.</_>
        <_>
          11 3 13 2 2.</_></rects>
      <tilted>0</tilted></_>
    <_>
      <rects>
        <_>
          11 13 18 3 -1.</_>
        <_>
          17 13 6 3 2.</_></rects>
      <tilted>0</tilted></_>
    <_>
      <rects>
        <_>
          11 17 3 1 -1.</_>
        <_>
          12 18 1 1 3.</_></rects>
      <tilted>1</tilted></_>
    <_>
      <rects>
        <_>
          11 21 4 8 -1.</_>
        <_>
          11 23 4 4 2.</_></rects>
      <tilted>0</tilted></_>
    <_>
      <rects>
        <_>
          11 28 1 2 -1.</_>
        <_>
          11 29 1 1 2.</_></rects>
      <tilted>0</tilted></_>
    <_>
      <rects>
        <_>
          11 28 13 2 -1.</_>
        <_>
          11 29 13 1 2.</_></rects>
      <tilted>0</tilted></_>
    <_>
      <rects>
        <_>
          12 0 2 8 -1.</_>
        <_>
          10 2 2 4 2.</_></rects>
      <tilted>1</tilted></_>
    <_>
      <rects>
        <_>
          12 0 9 1 -1.</_>
        <_>
          15 3 3 1 3.</_></rects>
      <tilted>1</tilted></_>
    <_>
      <rects>
        <_>
          12 0 13 4 -1.</_>
        <_>
          12 1 13 2 2.</_></rects>
      <tilted>0</tilted></_>
    <_>
      <rects>
        <_>
          12 2 18 28 -1.</_>
        <_>
          18 2 6 28 2.</_></rects>
      <tilted>0</tilted></_>
    <_>
      <rects>
        <_>
          12 4 4 4 -1.</_>
        <_>
          12 4 2 2 2.</_>
        <_>
          14 6 2 2 2.</_></rects>
      <tilted>0</tilted></_>
    <_>
      <rects>
        <_>
          12 7 2 3 -1.</_>
        <_>
          13 7 1 3 2.</_></rects>
      <tilted>0</tilted></_>
    <_>
      <rects>
        <_>
          12 8 8 4 -1.</_>
        <_>
          12 9 8 2 2.</_></rects>
      <tilted>0</tilted></_>
    <_>
      <rects>
        <_>
          12 10 4 15 -1.</_>
        <_>
          12 15 4 5 2.</_></rects>
      <tilted>0</tilted></_>
    <_>
      <rects>
        <_>
          12 10 10 8 -1.</_>
        <_>
          17 10 5 8 2.</_></rects>
      <tilted>0</tilted></_>
    <_>
      <rects>
        <_>
          12 13 3 1 -1.</_>
        <_>
          13 13 1 1 2.</_></rects>
      <tilted>0</tilted></_>
    <_>
      <rects>
        <_>
          12 16 3 6 -1.</_>
        <_>
          13 17 1 6 3.</_></rects>
      <tilted>1</tilted></_>
    <_>
      <rects>
        <_>
          12 20 18 4 -1.</_>
        <_>
          12 20 9 2 2.</_>
        <_>
          21 22 9 2 2.</_></rects>
      <tilted>0</tilted></_>
    <_>
      <rects>
        <_>
          12 26 7 4 -1.</_>
        <_>
          12 27 7 2 2.</_></rects>
      <tilted>0</tilted></_>
    <_>
      <rects>
        <_>
          12 28 9 2 -1.</_>
        <_>
          12 29 9 1 2.</_></rects>
      <tilted>0</tilted></_>
    <_>
      <rects>
        <_>
          13 0 2 8 -1.</_>
        <_>
          13 0 1 8 2.</_></rects>
      <tilted>1</tilted></_>
    <_>
      <rects>
        <_>
          13 0 6 2 -1.</_>
        <_>
          13 0 3 1 2.</_>
        <_>
          16 1 3 1 2.</_></rects>
      <tilted>0</tilted></_>
    <_>
      <rects>
        <_>
          13 1 9 9 -1.</_>
        <_>
          13 4 9 3 2.</_></rects>
      <tilted>0</tilted></_>
    <_>
      <rects>
        <_>
          13 2 7 6 -1.</_>
        <_>
          13 5 7 3 2.</_></rects>
      <tilted>0</tilted></_>
    <_>
      <rects>
        <_>
          13 3 2 4 -1.</_>
        <_>
          13 3 1 2 2.</_>
        <_>
          14 5 1 2 2.</_></rects>
      <tilted>0</tilted></_>
    <_>
      <rects>
        <_>
          13 6 2 3 -1.</_>
        <_>
          13 7 2 1 2.</_></rects>
      <tilted>0</tilted></_>
    <_>
      <rects>
        <_>
          13 8 5 9 -1.</_>
        <_>
          10 11 5 3 3.</_></rects>
      <tilted>1</tilted></_>
    <_>
      <rects>
        <_>
          13 17 3 5 -1.</_>
        <_>
          14 18 1 5 3.</_></rects>
      <tilted>1</tilted></_>
    <_>
      <rects>
        <_>
          13 17 5 6 -1.</_>
        <_>
          13 20 5 3 2.</_></rects>
      <tilted>0</tilted></_>
    <_>
      <rects>
        <_>
          14 1 1 14 -1.</_>
        <_>
          14 1 1 7 2.</_></rects>
      <tilted>1</tilted></_>
    <_>
      <rects>
        <_>
          14 2 2 6 -1.</_>
        <_>
          14 5 2 3 2.</_></rects>
      <tilted>0</tilted></_>
    <_>
      <rects>
        <_>
          14 8 16 19 -1.</_>
        <_>
          18 8 8 19 2.</_></rects>
      <tilted>0</tilted></_>
    <_>
      <rects>
        <_>
          14 8 11 2 -1.</_>
        <_>
          14 9 11 1 2.</_></rects>
      <tilted>0</tilted></_>
    <_>
      <rects>
        <_>
          14 13 2 14 -1.</_>
        <_>
          14 13 1 7 2.</_>
        <_>
          15 20 1 7 2.</_></rects>
      <tilted>0</tilted></_>
    <_>
      <rects>
        <_>
          14 16 2 6 -1.</_>
        <_>
          15 16 1 6 2.</_></rects>
      <tilted>0</tilted></_>
    <_>
      <rects>
        <_>
          14 19 12 4 -1.</_>
        <_>
          14 20 12 2 2.</_></rects>
      <tilted>0</tilted></_>
    <_>
      <rects>
        <_>
          14 23 6 6 -1.</_>
        <_>
          16 23 2 6 2.</_></rects>
      <tilted>0</tilted></_>
    <_>
      <rects>
        <_>
          15 0 8 1 -1.</_>
        <_>
          17 0 4 1 2.</_></rects>
      <tilted>0</tilted></_>
    <_>
      <rects>
        <_>
          15 1 9 6 -1.</_>
        <_>
          15 4 9 3 2.</_></rects>
      <tilted>0</tilted></_>
    <_>
      <rects>
        <_>
          15 3 11 2 -1.</_>
        <_>
          15 4 11 1 2.</_></rects>
      <tilted>0</tilted></_>
    <_>
      <rects>
        <_>
          15 4 7 3 -1.</_>
        <_>
          15 5 7 1 2.</_></rects>
      <tilted>0</tilted></_>
    <_>
      <rects>
        <_>
          15 6 2 5 -1.</_>
        <_>
          16 6 1 5 2.</_></rects>
      <tilted>0</tilted></_>
    <_>
      <rects>
        <_>
          15 7 4 3 -1.</_>
        <_>
          15 7 2 3 2.</_></rects>
      <tilted>1</tilted></_>
    <_>
      <rects>
        <_>
          15 10 12 4 -1.</_>
        <_>
          15 10 6 2 2.</_>
        <_>
          21 12 6 2 2.</_></rects>
      <tilted>0</tilted></_>
    <_>
      <rects>
        <_>
          15 10 8 16 -1.</_>
        <_>
          15 14 8 8 2.</_></rects>
      <tilted>0</tilted></_>
    <_>
      <rects>
        <_>
          15 10 10 2 -1.</_>
        <_>
          15 11 10 1 2.</_></rects>
      <tilted>0</tilted></_>
    <_>
      <rects>
        <_>
          15 10 11 8 -1.</_>
        <_>
          15 14 11 4 2.</_></rects>
      <tilted>0</tilted></_>
    <_>
      <rects>
        <_>
          15 11 14 3 -1.</_>
        <_>
          14 12 14 1 3.</_></rects>
      <tilted>1</tilted></_>
    <_>
      <rects>
        <_>
          15 18 10 2 -1.</_>
        <_>
          15 19 10 1 2.</_></rects>
      <tilted>0</tilted></_>
    <_>
      <rects>
        <_>
          15 19 15 3 -1.</_>
        <_>
          20 19 5 3 2.</_></rects>
      <tilted>0</tilted></_>
    <_>
      <rects>
        <_>
          15 21 8 2 -1.</_>
        <_>
          15 21 4 1 2.</_>
        <_>
          19 22 4 1 2.</_></rects>
      <tilted>0</tilted></_>
    <_>
      <rects>
        <_>
          15 25 9 4 -1.</_>
        <_>
          15 26 9 2 2.</_></rects>
      <tilted>0</tilted></_>
    <_>
      <rects>
        <_>
          16 1 2 10 -1.</_>
        <_>
          16 6 2 5 2.</_></rects>
      <tilted>0</tilted></_>
    <_>
      <rects>
        <_>
          16 2 12 10 -1.</_>
        <_>
          16 2 6 5 2.</_>
        <_>
          22 7 6 5 2.</_></rects>
      <tilted>0</tilted></_>
    <_>
      <rects>
        <_>
          16 4 6 22 -1.</_>
        <_>
          16 4 3 11 2.</_>
        <_>
          19 15 3 11 2.</_></rects>
      <tilted>0</tilted></_>
    <_>
      <rects>
        <_>
          16 5 14 8 -1.</_>
        <_>
          16 5 7 4 2.</_>
        <_>
          23 9 7 4 2.</_></rects>
      <tilted>0</tilted></_>
    <_>
      <rects>
        <_>
          16 21 13 8 -1.</_>
        <_>
          16 23 13 4 2.</_></rects>
      <tilted>0</tilted></_>
    <_>
      <rects>
        <_>
          17 0 9 8 -1.</_>
        <_>
          17 2 9 4 2.</_></rects>
      <tilted>0</tilted></_>
    <_>
      <rects>
        <_>
          17 4 8 2 -1.</_>
        <_>
          19 4 4 2 2.</_></rects>
      <tilted>0</tilted></_>
    <_>
      <rects>
        <_>
          17 4 13 4 -1.</_>
        <_>
          16 5 13 2 2.</_></rects>
      <tilted>1</tilted></_>
    <_>
      <rects>
        <_>
          17 5 2 2 -1.</_>
        <_>
          17 6 2 1 2.</_></rects>
      <tilted>0</tilted></_>
    <_>
      <rects>
        <_>
          17 13 2 9 -1.</_>
        <_>
          17 16 2 3 2.</_></rects>
      <tilted>0</tilted></_>
    <_>
      <rects>
        <_>
          17 22 8 2 -1.</_>
        <_>
          17 22 4 1 2.</_>
        <_>
          21 23 4 1 2.</_></rects>
      <tilted>0</tilted></_>
    <_>
      <rects>
        <_>
          18 0 4 2 -1.</_>
        <_>
          19 0 2 2 2.</_></rects>
      <tilted>0</tilted></_>
    <_>
      <rects>
        <_>
          18 3 4 20 -1.</_>
        <_>
          18 3 2 10 2.</_>
        <_>
          20 13 2 10 2.</_></rects>
      <tilted>0</tilted></_>
    <_>
      <rects>
        <_>
          18 11 8 4 -1.</_>
        <_>
          18 11 4 2 2.</_>
        <_>
          22 13 4 2 2.</_></rects>
      <tilted>0</tilted></_>
    <_>
      <rects>
        <_>
          18 11 12 19 -1.</_>
        <_>
          24 11 6 19 2.</_></rects>
      <tilted>0</tilted></_>
    <_>
      <rects>
        <_>
          18 13 12 5 -1.</_>
        <_>
          21 16 6 5 2.</_></rects>
      <tilted>1</tilted></_>
    <_>
      <rects>
        <_>
          18 23 6 3 -1.</_>
        <_>
          20 23 2 3 2.</_></rects>
      <tilted>0</tilted></_>
    <_>
      <rects>
        <_>
          19 0 7 2 -1.</_>
        <_>
          19 1 7 1 2.</_></rects>
      <tilted>0</tilted></_>
    <_>
      <rects>
        <_>
          19 2 11 3 -1.</_>
        <_>
          18 3 11 1 3.</_></rects>
      <tilted>1</tilted></_>
    <_>
      <rects>
        <_>
          19 4 2 22 -1.</_>
        <_>
          19 4 1 11 2.</_>
        <_>
          20 15 1 11 2.</_></rects>
      <tilted>0</tilted></_>
    <_>
      <rects>
        <_>
          19 12 3 3 -1.</_>
        <_>
          20 13 1 1 9.</_></rects>
      <tilted>0</tilted></_>
    <_>
      <rects>
        <_>
          19 20 3 3 -1.</_>
        <_>
          19 21 3 1 2.</_></rects>
      <tilted>0</tilted></_>
    <_>
      <rects>
        <_>
          20 0 9 5 -1.</_>
        <_>
          23 3 3 5 3.</_></rects>
      <tilted>1</tilted></_>
    <_>
      <rects>
        <_>
          20 5 6 6 -1.</_>
        <_>
          20 5 3 3 2.</_>
        <_>
          23 8 3 3 2.</_></rects>
      <tilted>0</tilted></_>
    <_>
      <rects>
        <_>
          20 6 1 4 -1.</_>
        <_>
          20 6 1 2 2.</_></rects>
      <tilted>1</tilted></_>
    <_>
      <rects>
        <_>
          20 6 8 6 -1.</_>
        <_>
          22 6 4 6 2.</_></rects>
      <tilted>0</tilted></_>
    <_>
      <rects>
        <_>
          20 7 10 18 -1.</_>
        <_>
          25 7 5 18 2.</_></rects>
      <tilted>0</tilted></_>
    <_>
      <rects>
        <_>
          20 13 6 4 -1.</_>
        <_>
          20 13 3 2 2.</_>
        <_>
          23 15 3 2 2.</_></rects>
      <tilted>0</tilted></_>
    <_>
      <rects>
        <_>
          20 15 10 14 -1.</_>
        <_>
          25 15 5 14 2.</_></rects>
      <tilted>0</tilted></_>
    <_>
      <rects>
        <_>
          20 24 7 6 -1.</_>
        <_>
          20 27 7 3 2.</_></rects>
      <tilted>0</tilted></_>
    <_>
      <rects>
        <_>
          20 29 6 1 -1.</_>
        <_>
          23 29 3 1 2.</_></rects>
      <tilted>0</tilted></_>
    <_>
      <rects>
        <_>
          21 0 9 6 -1.</_>
        <_>
          19 2 9 2 3.</_></rects>
      <tilted>1</tilted></_>
    <_>
      <rects>
        <_>
          21 1 3 4 -1.</_>
        <_>
          22 2 1 4 3.</_></rects>
      <tilted>1</tilted></_>
    <_>
      <rects>
        <_>
          21 4 2 1 -1.</_>
        <_>
          22 4 1 1 2.</_></rects>
      <tilted>0</tilted></_>
    <_>
      <rects>
        <_>
          21 13 4 16 -1.</_>
        <_>
          21 13 2 8 2.</_>
        <_>
          23 21 2 8 2.</_></rects>
      <tilted>0</tilted></_>
    <_>
      <rects>
        <_>
          21 15 4 3 -1.</_>
        <_>
          23 15 2 3 2.</_></rects>
      <tilted>0</tilted></_>
    <_>
      <rects>
        <_>
          21 29 2 1 -1.</_>
        <_>
          22 29 1 1 2.</_></rects>
      <tilted>0</tilted></_>
    <_>
      <rects>
        <_>
          22 0 2 4 -1.</_>
        <_>
          23 0 1 4 2.</_></rects>
      <tilted>0</tilted></_>
    <_>
      <rects>
        <_>
          22 2 4 6 -1.</_>
        <_>
          23 3 2 6 2.</_></rects>
      <tilted>1</tilted></_>
    <_>
      <rects>
        <_>
          22 5 4 14 -1.</_>
        <_>
          22 5 2 7 2.</_>
        <_>
          24 12 2 7 2.</_></rects>
      <tilted>0</tilted></_>
    <_>
      <rects>
        <_>
          22 10 4 12 -1.</_>
        <_>
          19 13 4 6 2.</_></rects>
      <tilted>1</tilted></_>
    <_>
      <rects>
        <_>
          22 11 4 9 -1.</_>
        <_>
          19 14 4 3 3.</_></rects>
      <tilted>1</tilted></_>
    <_>
      <rects>
        <_>
          22 15 8 10 -1.</_>
        <_>
          24 15 4 10 2.</_></rects>
      <tilted>0</tilted></_>
    <_>
      <rects>
        <_>
          23 0 1 6 -1.</_>
        <_>
          21 2 1 2 3.</_></rects>
      <tilted>1</tilted></_>
    <_>
      <rects>
        <_>
          23 0 4 7 -1.</_>
        <_>
          24 0 2 7 2.</_></rects>
      <tilted>0</tilted></_>
    <_>
      <rects>
        <_>
          23 2 6 16 -1.</_>
        <_>
          23 2 3 8 2.</_>
        <_>
          26 10 3 8 2.</_></rects>
      <tilted>0</tilted></_>
    <_>
      <rects>
        <_>
          23 6 4 11 -1.</_>
        <_>
          24 6 2 11 2.</_></rects>
      <tilted>0</tilted></_>
    <_>
      <rects>
        <_>
          23 9 2 12 -1.</_>
        <_>
          23 9 1 6 2.</_>
        <_>
          24 15 1 6 2.</_></rects>
      <tilted>0</tilted></_>
    <_>
      <rects>
        <_>
          23 15 6 6 -1.</_>
        <_>
          23 18 6 3 2.</_></rects>
      <tilted>0</tilted></_>
    <_>
      <rects>
        <_>
          23 23 3 4 -1.</_>
        <_>
          24 24 1 4 3.</_></rects>
      <tilted>1</tilted></_>
    <_>
      <rects>
        <_>
          23 23 4 3 -1.</_>
        <_>
          22 24 4 1 3.</_></rects>
      <tilted>1</tilted></_>
    <_>
      <rects>
        <_>
          24 0 4 2 -1.</_>
        <_>
          25 1 2 2 2.</_></rects>
      <tilted>1</tilted></_>
    <_>
      <rects>
        <_>
          24 0 4 4 -1.</_>
        <_>
          25 0 2 4 2.</_></rects>
      <tilted>0</tilted></_>
    <_>
      <rects>
        <_>
          24 6 6 12 -1.</_>
        <_>
          24 6 3 6 2.</_>
        <_>
          27 12 3 6 2.</_></rects>
      <tilted>0</tilted></_>
    <_>
      <rects>
        <_>
          24 14 4 14 -1.</_>
        <_>
          25 14 2 14 2.</_></rects>
      <tilted>0</tilted></_>
    <_>
      <rects>
        <_>
          24 14 4 2 -1.</_>
        <_>
          24 14 2 2 2.</_></rects>
      <tilted>1</tilted></_>
    <_>
      <rects>
        <_>
          24 28 4 1 -1.</_>
        <_>
          26 28 2 1 2.</_></rects>
      <tilted>0</tilted></_>
    <_>
      <rects>
        <_>
          24 28 6 2 -1.</_>
        <_>
          24 28 3 1 2.</_>
        <_>
          27 29 3 1 2.</_></rects>
      <tilted>0</tilted></_>
    <_>
      <rects>
        <_>
          24 29 4 1 -1.</_>
        <_>
          26 29 2 1 2.</_></rects>
      <tilted>0</tilted></_>
    <_>
      <rects>
        <_>
          25 3 3 13 -1.</_>
        <_>
          26 4 1 13 3.</_></rects>
      <tilted>1</tilted></_>
    <_>
      <rects>
        <_>
          25 9 5 6 -1.</_>
        <_>
          23 11 5 2 3.</_></rects>
      <tilted>1</tilted></_>
    <_>
      <rects>
        <_>
          25 12 5 3 -1.</_>
        <_>
          24 13 5 1 3.</_></rects>
      <tilted>1</tilted></_>
    <_>
      <rects>
        <_>
          25 14 4 2 -1.</_>
        <_>
          25 14 2 1 2.</_>
        <_>
          27 15 2 1 2.</_></rects>
      <tilted>0</tilted></_>
    <_>
      <rects>
        <_>
          25 21 4 4 -1.</_>
        <_>
          26 22 2 4 2.</_></rects>
      <tilted>1</tilted></_>
    <_>
      <rects>
        <_>
          26 0 4 15 -1.</_>
        <_>
          27 0 2 15 2.</_></rects>
      <tilted>0</tilted></_>
    <_>
      <rects>
        <_>
          26 4 3 4 -1.</_>
        <_>
          27 5 1 4 3.</_></rects>
      <tilted>1</tilted></_>
    <_>
      <rects>
        <_>
          26 12 3 13 -1.</_>
        <_>
          27 13 1 13 3.</_></rects>
      <tilted>1</tilted></_>
    <_>
      <rects>
        <_>
          26 13 3 3 -1.</_>
        <_>
          25 14 3 1 3.</_></rects>
      <tilted>1</tilted></_>
    <_>
      <rects>
        <_>
          26 15 4 3 -1.</_>
        <_>
          27 15 2 3 2.</_></rects>
      <tilted>0</tilted></_>
    <_>
      <rects>
        <_>
          26 26 2 3 -1.</_>
        <_>
          27 26 1 3 2.</_></rects>
      <tilted>0</tilted></_>
    <_>
      <rects>
        <_>
          27 1 3 18 -1.</_>
        <_>
          27 7 3 6 2.</_></rects>
      <tilted>0</tilted></_>
    <_>
      <rects>
        <_>
          27 4 2 4 -1.</_>
        <_>
          27 5 2 2 2.</_></rects>
      <tilted>0</tilted></_>
    <_>
      <rects>
        <_>
          27 4 3 20 -1.</_>
        <_>
          27 9 3 10 2.</_></rects>
      <tilted>0</tilted></_>
    <_>
      <rects>
        <_>
          27 6 3 6 -1.</_>
        <_>
          25 8 3 2 3.</_></rects>
      <tilted>1</tilted></_>
    <_>
      <rects>
        <_>
          27 16 3 4 -1.</_>
        <_>
          27 17 3 2 2.</_></rects>
      <tilted>0</tilted></_>
    <_>
      <rects>
        <_>
          28 6 2 2 -1.</_>
        <_>
          28 7 2 1 2.</_></rects>
      <tilted>0</tilted></_>
    <_>
      <rects>
        <_>
          28 11 2 2 -1.</_>
        <_>
          28 11 1 1 2.</_>
        <_>
          29 12 1 1 2.</_></rects>
      <tilted>0</tilted></_>
    <_>
      <rects>
        <_>
          28 12 2 4 -1.</_>
        <_>
          28 13 2 2 2.</_></rects>
      <tilted>0</tilted></_>
    <_>
      <rects>
        <_>
          28 17 2 6 -1.</_>
        <_>
          26 19 2 2 3.</_></rects>
      <tilted>1</tilted></_>
    <_>
      <rects>
        <_>
          28 20 2 8 -1.</_>
        <_>
          28 24 2 4 2.</_></rects>
      <tilted>0</tilted></_>
    <_>
      <rects>
        <_>
          28 27 2 3 -1.</_>
        <_>
          29 27 1 3 2.</_></rects>
      <tilted>0</tilted></_>
    <_>
      <rects>
        <_>
          28 28 1 2 -1.</_>
        <_>
          28 29 1 1 2.</_></rects>
      <tilted>0</tilted></_>
    <_>
      <rects>
        <_>
          28 28 2 2 -1.</_>
        <_>
          29 28 1 2 2.</_></rects>
      <tilted>0</tilted></_>
    <_>
      <rects>
        <_>
          29 11 1 12 -1.</_>
        <_>
          29 17 1 6 2.</_></rects>
      <tilted>0</tilted></_>
    <_>
      <rects>
        <_>
          29 12 1 12 -1.</_>
        <_>
          29 15 1 6 2.</_></rects>
      <tilted>0</tilted></_>
    <_>
      <rects>
        <_>
          29 15 1 6 -1.</_>
        <_>
          29 17 1 2 2.</_></rects>
      <tilted>0</tilted></_>
    <_>
      <rects>
        <_>
          29 17 1 8 -1.</_>
        <_>
          29 19 1 4 2.</_></rects>
      <tilted>0</tilted></_>
    <_>
      <rects>
        <_>
          29 20 1 8 -1.</_>
        <_>
          27 22 1 4 2.</_></rects>
      <tilted>1</tilted></_>
    <_>
      <rects>
        <_>
          29 26 1 2 -1.</_>
        <_>
          29 26 1 1 2.</_></rects>
      <tilted>1</tilted></_>
    <_>
      <rects>
        <_>
          29 28 1 2 -1.</_>
        <_>
          29 29 1 1 2.</_></rects>
      <tilted>0</tilted></_></features></cascade>
</opencv_storage>
