<?xml version="1.0"?>
<opencv_storage>
<stage11>
  <maxWeakCount>9</maxWeakCount>
  <stageThreshold>-7.7761858701705933e-01</stageThreshold>
  <weakClassifiers>
    <_>
      <internalNodes>
        0 -1 508893 -1.0772882960736752e-03</internalNodes>
      <leafValues>
        -3.9890709519386292e-01 5.1724135875701904e-01</leafValues></_>
    <_>
      <internalNodes>
        0 -1 224472 -1.3025004882365465e-03</internalNodes>
      <leafValues>
        -7.8892350196838379e-01 1.9579640030860901e-01</leafValues></_>
    <_>
      <internalNodes>
        0 -1 642433 9.1130015789531171e-05</internalNodes>
      <leafValues>
        2.1181811392307281e-01 -6.9240462779998779e-01</leafValues></_>
    <_>
      <internalNodes>
        0 -1 366237 -5.1367254927754402e-03</internalNodes>
      <leafValues>
        4.7007140517234802e-01 -3.6787137389183044e-01</leafValues></_>
    <_>
      <internalNodes>
        0 -1 547548 6.3924246933311224e-04</internalNodes>
      <leafValues>
        -4.3296793103218079e-01 4.0809822082519531e-01</leafValues></_>
    <_>
      <internalNodes>
        0 -1 533806 -2.6563982828520238e-04</internalNodes>
      <leafValues>
        -4.8172187805175781e-01 4.0329495072364807e-01</leafValues></_>
    <_>
      <internalNodes>
        0 -1 595922 -1.1621738667599857e-04</internalNodes>
      <leafValues>
        -7.2547197341918945e-01 2.4035951495170593e-01</leafValues></_>
    <_>
      <internalNodes>
        0 -1 40680 2.3365885019302368e-02</internalNodes>
      <leafValues>
        -2.8008380532264709e-01 7.4681925773620605e-01</leafValues></_>
    <_>
      <internalNodes>
        0 -1 346426 -4.5864380896091461e-02</internalNodes>
      <leafValues>
        5.3955078125000000e-01 -3.0510672926902771e-01</leafValues></_></weakClassifiers></stage11>
</opencv_storage>
