<?xml version="1.0"?>
<opencv_storage>
<stage24>
  <maxWeakCount>15</maxWeakCount>
  <stageThreshold>-8.8398039340972900e-01</stageThreshold>
  <weakClassifiers>
    <_>
      <internalNodes>
        0 -1 285634 -3.2306374050676823e-03</internalNodes>
      <leafValues>
        3.7735849618911743e-01 -3.1937173008918762e-01</leafValues></_>
    <_>
      <internalNodes>
        0 -1 273137 -6.2794266268610954e-03</internalNodes>
      <leafValues>
        -2.6488888263702393e-01 3.7866166234016418e-01</leafValues></_>
    <_>
      <internalNodes>
        0 -1 39030 3.2205791212618351e-03</internalNodes>
      <leafValues>
        -2.1672284603118896e-01 5.3317487239837646e-01</leafValues></_>
    <_>
      <internalNodes>
        0 -1 456568 2.8636213392019272e-03</internalNodes>
      <leafValues>
        -1.9864630699157715e-01 5.5749011039733887e-01</leafValues></_>
    <_>
      <internalNodes>
        0 -1 418116 -3.1400064472109079e-04</internalNodes>
      <leafValues>
        2.8132563829421997e-01 -3.7994232773780823e-01</leafValues></_>
    <_>
      <internalNodes>
        0 -1 128188 -5.0550832384033129e-05</internalNodes>
      <leafValues>
        -4.7297984361648560e-01 2.6848325133323669e-01</leafValues></_>
    <_>
      <internalNodes>
        0 -1 641236 -7.4809156358242035e-03</internalNodes>
      <leafValues>
        6.1863529682159424e-01 -1.8283210694789886e-01</leafValues></_>
    <_>
      <internalNodes>
        0 -1 141594 4.0866661584004760e-04</internalNodes>
      <leafValues>
        -3.8683235645294189e-01 2.9114651679992676e-01</leafValues></_>
    <_>
      <internalNodes>
        0 -1 295785 1.6708815470337868e-02</internalNodes>
      <leafValues>
        -1.8360516428947449e-01 6.6072094440460205e-01</leafValues></_>
    <_>
      <internalNodes>
        0 -1 626781 8.1010663416236639e-04</internalNodes>
      <leafValues>
        3.6078196763992310e-01 -3.3302527666091919e-01</leafValues></_>
    <_>
      <internalNodes>
        0 -1 570664 4.2809714796021581e-04</internalNodes>
      <leafValues>
        -1.5699137747287750e-01 8.5628771781921387e-01</leafValues></_>
    <_>
      <internalNodes>
        0 -1 61453 -4.8952158540487289e-03</internalNodes>
      <leafValues>
        7.9348134994506836e-01 -1.6516909003257751e-01</leafValues></_>
    <_>
      <internalNodes>
        0 -1 283971 -2.8108203783631325e-02</internalNodes>
      <leafValues>
        -6.8184036016464233e-01 1.8305136263370514e-01</leafValues></_>
    <_>
      <internalNodes>
        0 -1 313826 -4.6517211012542248e-04</internalNodes>
      <leafValues>
        4.5182770490646362e-01 -3.0956089496612549e-01</leafValues></_>
    <_>
      <internalNodes>
        0 -1 163323 1.3593465555459261e-03</internalNodes>
      <leafValues>
        -3.5439044237136841e-01 3.7575766444206238e-01</leafValues></_></weakClassifiers></stage24>
</opencv_storage>
