<?xml version="1.0"?>
<opencv_storage>
<stage23>
  <maxWeakCount>15</maxWeakCount>
  <stageThreshold>-4.6333107352256775e-01</stageThreshold>
  <weakClassifiers>
    <_>
      <internalNodes>
        0 -1 289982 4.7391608357429504e-02</internalNodes>
      <leafValues>
        -2.2033898532390594e-01 7.0588237047195435e-01</leafValues></_>
    <_>
      <internalNodes>
        0 -1 625007 -2.6628019986674190e-04</internalNodes>
      <leafValues>
        6.5597826242446899e-01 -1.3101319968700409e-01</leafValues></_>
    <_>
      <internalNodes>
        0 -1 226029 1.5195223386399448e-04</internalNodes>
      <leafValues>
        2.1130762994289398e-01 -4.7891044616699219e-01</leafValues></_>
    <_>
      <internalNodes>
        0 -1 475438 6.2109082937240601e-03</internalNodes>
      <leafValues>
        1.3410027325153351e-01 -7.4299687147140503e-01</leafValues></_>
    <_>
      <internalNodes>
        0 -1 432476 -1.4449124224483967e-02</internalNodes>
      <leafValues>
        -6.5755325555801392e-01 1.5397010743618011e-01</leafValues></_>
    <_>
      <internalNodes>
        0 -1 491152 -1.7515983199700713e-03</internalNodes>
      <leafValues>
        4.8285305500030518e-01 -2.2489847242832184e-01</leafValues></_>
    <_>
      <internalNodes>
        0 -1 272007 1.7050830138032325e-05</internalNodes>
      <leafValues>
        -3.5364967584609985e-01 3.1194114685058594e-01</leafValues></_>
    <_>
      <internalNodes>
        0 -1 621931 1.4649429431301542e-05</internalNodes>
      <leafValues>
        3.8765254616737366e-01 -2.7764037251472473e-01</leafValues></_>
    <_>
      <internalNodes>
        0 -1 633903 1.0742857120931149e-03</internalNodes>
      <leafValues>
        1.1618914455175400e-01 -8.7110835313796997e-01</leafValues></_>
    <_>
      <internalNodes>
        0 -1 15812 -7.3102599708363414e-04</internalNodes>
      <leafValues>
        4.6549597382545471e-01 -3.0235701799392700e-01</leafValues></_>
    <_>
      <internalNodes>
        0 -1 155687 4.3452881276607513e-02</internalNodes>
      <leafValues>
        1.4306505024433136e-01 -8.8611751794815063e-01</leafValues></_>
    <_>
      <internalNodes>
        0 -1 575824 -2.5934283621609211e-03</internalNodes>
      <leafValues>
        7.0610618591308594e-01 -2.0672093331813812e-01</leafValues></_>
    <_>
      <internalNodes>
        0 -1 469081 -2.8095888410462067e-05</internalNodes>
      <leafValues>
        4.2997193336486816e-01 -2.7555164694786072e-01</leafValues></_>
    <_>
      <internalNodes>
        0 -1 559027 -5.2285956917330623e-04</internalNodes>
      <leafValues>
        3.6780366301536560e-01 -4.1584450006484985e-01</leafValues></_>
    <_>
      <internalNodes>
        0 -1 626341 3.7541618803516030e-04</internalNodes>
      <leafValues>
        -1.5941561758518219e-01 8.1196212768554688e-01</leafValues></_></weakClassifiers></stage23>
</opencv_storage>
