<?xml version="1.0"?>
<opencv_storage>
<stage17>
  <maxWeakCount>14</maxWeakCount>
  <stageThreshold>-8.7698167562484741e-01</stageThreshold>
  <weakClassifiers>
    <_>
      <internalNodes>
        0 -1 153535 2.3074453696608543e-02</internalNodes>
      <leafValues>
        8.7136931717395782e-02 -7.5000000000000000e-01</leafValues></_>
    <_>
      <internalNodes>
        0 -1 562067 -6.4494571415707469e-04</internalNodes>
      <leafValues>
        3.6997619271278381e-01 -2.7114549279212952e-01</leafValues></_>
    <_>
      <internalNodes>
        0 -1 602179 1.8726609414443374e-03</internalNodes>
      <leafValues>
        -1.4684741199016571e-01 6.5372741222381592e-01</leafValues></_>
    <_>
      <internalNodes>
        0 -1 533328 -7.1678638050798327e-05</internalNodes>
      <leafValues>
        -4.2188033461570740e-01 2.6947230100631714e-01</leafValues></_>
    <_>
      <internalNodes>
        0 -1 66445 4.8672976845409721e-05</internalNodes>
      <leafValues>
        2.3151767253875732e-01 -5.8719670772552490e-01</leafValues></_>
    <_>
      <internalNodes>
        0 -1 535759 1.1049650609493256e-02</internalNodes>
      <leafValues>
        -2.0204976201057434e-01 8.6814671754837036e-01</leafValues></_>
    <_>
      <internalNodes>
        0 -1 12584 -2.8391331434249878e-02</internalNodes>
      <leafValues>
        5.3485178947448730e-01 -1.9168400764465332e-01</leafValues></_>
    <_>
      <internalNodes>
        0 -1 313225 1.2487109052017331e-04</internalNodes>
      <leafValues>
        2.1577875316143036e-01 -5.2406114339828491e-01</leafValues></_>
    <_>
      <internalNodes>
        0 -1 194154 -5.0152349285781384e-04</internalNodes>
      <leafValues>
        5.7111757993698120e-01 -1.8136213719844818e-01</leafValues></_>
    <_>
      <internalNodes>
        0 -1 461815 -6.5528750419616699e-03</internalNodes>
      <leafValues>
        7.2566503286361694e-01 -1.9053287804126740e-01</leafValues></_>
    <_>
      <internalNodes>
        0 -1 23064 -4.8499743570573628e-05</internalNodes>
      <leafValues>
        -4.5666337013244629e-01 2.7368280291557312e-01</leafValues></_>
    <_>
      <internalNodes>
        0 -1 460711 -3.5160011611878872e-04</internalNodes>
      <leafValues>
        4.5323002338409424e-01 -3.0672344565391541e-01</leafValues></_>
    <_>
      <internalNodes>
        0 -1 1576 4.4561680406332016e-02</internalNodes>
      <leafValues>
        -3.2290220260620117e-01 4.5179134607315063e-01</leafValues></_>
    <_>
      <internalNodes>
        0 -1 497026 5.9996114578098059e-04</internalNodes>
      <leafValues>
        -2.3880629241466522e-01 5.5311709642410278e-01</leafValues></_></weakClassifiers></stage17>
</opencv_storage>
