<?xml version="1.0"?>
<opencv_storage>
<stage22>
  <maxWeakCount>13</maxWeakCount>
  <stageThreshold>-5.4277050495147705e-01</stageThreshold>
  <weakClassifiers>
    <_>
      <internalNodes>
        0 -1 624590 -2.9615178937092423e-04</internalNodes>
      <leafValues>
        4.7222220897674561e-01 -2.4444444477558136e-01</leafValues></_>
    <_>
      <internalNodes>
        0 -1 490313 -4.4303550384938717e-03</internalNodes>
      <leafValues>
        3.2011973857879639e-01 -3.2113024592399597e-01</leafValues></_>
    <_>
      <internalNodes>
        0 -1 23087 4.0246912976726890e-04</internalNodes>
      <leafValues>
        -2.7172783017158508e-01 3.8046827912330627e-01</leafValues></_>
    <_>
      <internalNodes>
        0 -1 163694 2.8488639509305358e-04</internalNodes>
      <leafValues>
        1.3740029931068420e-01 -7.2126924991607666e-01</leafValues></_>
    <_>
      <internalNodes>
        0 -1 460666 4.0166079998016357e-02</internalNodes>
      <leafValues>
        1.6751036047935486e-01 -7.7845066785812378e-01</leafValues></_>
    <_>
      <internalNodes>
        0 -1 441878 3.9612496038898826e-04</internalNodes>
      <leafValues>
        -2.2897772490978241e-01 6.2157237529754639e-01</leafValues></_>
    <_>
      <internalNodes>
        0 -1 291958 -3.9058434776961803e-03</internalNodes>
      <leafValues>
        4.2276179790496826e-01 -3.1937873363494873e-01</leafValues></_>
    <_>
      <internalNodes>
        0 -1 14045 3.3704422094160691e-05</internalNodes>
      <leafValues>
        3.1388822197914124e-01 -4.3758180737495422e-01</leafValues></_>
    <_>
      <internalNodes>
        0 -1 596081 4.9653790483716875e-05</internalNodes>
      <leafValues>
        2.9530978202819824e-01 -4.4937551021575928e-01</leafValues></_>
    <_>
      <internalNodes>
        0 -1 182835 6.8529173731803894e-03</internalNodes>
      <leafValues>
        -2.5263711810112000e-01 5.3855544328689575e-01</leafValues></_>
    <_>
      <internalNodes>
        0 -1 506329 -1.9945781677961349e-03</internalNodes>
      <leafValues>
        1.6084037721157074e-01 -8.8634645938873291e-01</leafValues></_>
    <_>
      <internalNodes>
        0 -1 65321 2.7041308931075037e-04</internalNodes>
      <leafValues>
        -2.0527005195617676e-01 7.7289021015167236e-01</leafValues></_>
    <_>
      <internalNodes>
        0 -1 154982 -6.1184722930192947e-02</internalNodes>
      <leafValues>
        -2.7501708269119263e-01 4.7289308905601501e-01</leafValues></_></weakClassifiers></stage22>
</opencv_storage>
