<?xml version="1.0"?>
<opencv_storage>
<stage1>
  <maxWeakCount>8</maxWeakCount>
  <stageThreshold>-5.7213288545608521e-01</stageThreshold>
  <weakClassifiers>
    <_>
      <internalNodes>
        0 -1 159489 -3.0045889317989349e-02</internalNodes>
      <leafValues>
        8.0582523345947266e-01 -5.3608244657516479e-01</leafValues></_>
    <_>
      <internalNodes>
        0 -1 563413 2.9778901487588882e-02</internalNodes>
      <leafValues>
        -3.5461392998695374e-01 6.6881561279296875e-01</leafValues></_>
    <_>
      <internalNodes>
        0 -1 212862 -8.6557697504758835e-03</internalNodes>
      <leafValues>
        8.1194329261779785e-01 -2.7233085036277771e-01</leafValues></_>
    <_>
      <internalNodes>
        0 -1 634631 -8.0830901861190796e-02</internalNodes>
      <leafValues>
        -8.7976270914077759e-01 3.1608465313911438e-01</leafValues></_>
    <_>
      <internalNodes>
        0 -1 3928 -1.0591335594654083e-02</internalNodes>
      <leafValues>
        7.9680180549621582e-01 -3.5142570734024048e-01</leafValues></_>
    <_>
      <internalNodes>
        0 -1 66284 1.4365617244038731e-04</internalNodes>
      <leafValues>
        3.3022499084472656e-01 -7.7251774072647095e-01</leafValues></_>
    <_>
      <internalNodes>
        0 -1 526896 -1.9210014492273331e-02</internalNodes>
      <leafValues>
        6.6355097293853760e-01 -4.0365469455718994e-01</leafValues></_>
    <_>
      <internalNodes>
        0 -1 65130 -9.4328038394451141e-03</internalNodes>
      <leafValues>
        6.9966512918472290e-01 -3.3561474084854126e-01</leafValues></_></weakClassifiers></stage1>
</opencv_storage>
