<?xml version="1.0"?>
<opencv_storage>
<stage0>
  <maxWeakCount>5</maxWeakCount>
  <stageThreshold>-5.1873004436492920e-01</stageThreshold>
  <weakClassifiers>
    <_>
      <internalNodes>
        0 -1 163401 1.3910930603742599e-02</internalNodes>
      <leafValues>
        -5.6122446060180664e-01 8.8118809461593628e-01</leafValues></_>
    <_>
      <internalNodes>
        0 -1 531683 -1.6481846570968628e-02</internalNodes>
      <leafValues>
        -5.8376842737197876e-01 4.9462482333183289e-01</leafValues></_>
    <_>
      <internalNodes>
        0 -1 618404 -1.5421047282870859e-04</internalNodes>
      <leafValues>
        -7.0407056808471680e-01 3.5834139585494995e-01</leafValues></_>
    <_>
      <internalNodes>
        0 -1 473349 -1.5176337212324142e-02</internalNodes>
      <leafValues>
        8.1889843940734863e-01 -3.3211323618888855e-01</leafValues></_>
    <_>
      <internalNodes>
        0 -1 100794 -2.4898547679185867e-02</internalNodes>
      <leafValues>
        6.0003471374511719e-01 -4.4255185127258301e-01</leafValues></_></weakClassifiers></stage0>
</opencv_storage>
