<?xml version="1.0"?>
<opencv_storage>
<stage0>
  <maxWeakCount>7</maxWeakCount>
  <stageThreshold>-1.1183228492736816e+00</stageThreshold>
  <weakClassifiers>
    <_>
      <internalNodes>
        0 -1 162844 2.6322279125452042e-02</internalNodes>
      <leafValues>
        -5.5621302127838135e-01 8.3673471212387085e-01</leafValues></_>
    <_>
      <internalNodes>
        0 -1 469155 -4.8700999468564987e-02</internalNodes>
      <leafValues>
        -7.5533026456832886e-01 3.4856924414634705e-01</leafValues></_>
    <_>
      <internalNodes>
        0 -1 171863 -1.7482168972492218e-02</internalNodes>
      <leafValues>
        6.7959827184677124e-01 -3.6772015690803528e-01</leafValues></_>
    <_>
      <internalNodes>
        0 -1 634000 -2.1396124793682247e-04</internalNodes>
      <leafValues>
        -7.7434331178665161e-01 2.8732803463935852e-01</leafValues></_>
    <_>
      <internalNodes>
        0 -1 30533 -1.5568987466394901e-02</internalNodes>
      <leafValues>
        6.2951773405075073e-01 -3.2681912183761597e-01</leafValues></_>
    <_>
      <internalNodes>
        0 -1 353921 -2.8228631243109703e-02</internalNodes>
      <leafValues>
        6.6274738311767578e-01 -3.0918848514556885e-01</leafValues></_>
    <_>
      <internalNodes>
        0 -1 372059 -1.5342655591666698e-02</internalNodes>
      <leafValues>
        8.3589100837707520e-01 -1.9427940249443054e-01</leafValues></_></weakClassifiers></stage0>
</opencv_storage>
