<?xml version="1.0"?>
<opencv_storage>
<stage12>
  <maxWeakCount>12</maxWeakCount>
  <stageThreshold>-5.6804037094116211e-01</stageThreshold>
  <weakClassifiers>
    <_>
      <internalNodes>
        0 -1 374554 -3.3893525600433350e-01</internalNodes>
      <leafValues>
        2.4324324727058411e-01 -5.8928573131561279e-01</leafValues></_>
    <_>
      <internalNodes>
        0 -1 40976 -8.4408648312091827e-02</internalNodes>
      <leafValues>
        4.8840937018394470e-01 -3.1352648138999939e-01</leafValues></_>
    <_>
      <internalNodes>
        0 -1 641669 -7.1071495767682791e-05</internalNodes>
      <leafValues>
        -7.0820969343185425e-01 2.0288132131099701e-01</leafValues></_>
    <_>
      <internalNodes>
        0 -1 7346 8.9317373931407928e-02</internalNodes>
      <leafValues>
        -1.8475170433521271e-01 7.2513949871063232e-01</leafValues></_>
    <_>
      <internalNodes>
        0 -1 33479 2.1110361558385193e-04</internalNodes>
      <leafValues>
        -2.6842817664146423e-01 5.0600433349609375e-01</leafValues></_>
    <_>
      <internalNodes>
        0 -1 46185 -3.0248069379013032e-05</internalNodes>
      <leafValues>
        3.4290894865989685e-01 -3.9972072839736938e-01</leafValues></_>
    <_>
      <internalNodes>
        0 -1 18859 -2.7706402540206909e-01</internalNodes>
      <leafValues>
        2.7347251772880554e-01 -5.3280431032180786e-01</leafValues></_>
    <_>
      <internalNodes>
        0 -1 362488 -5.5323861539363861e-02</internalNodes>
      <leafValues>
        -6.4147394895553589e-01 2.2280935943126678e-01</leafValues></_>
    <_>
      <internalNodes>
        0 -1 582128 -4.8394333134638146e-05</internalNodes>
      <leafValues>
        -4.6872615814208984e-01 2.9602363705635071e-01</leafValues></_>
    <_>
      <internalNodes>
        0 -1 306334 7.4998711170337629e-06</internalNodes>
      <leafValues>
        -4.3588340282440186e-01 3.6113435029983521e-01</leafValues></_>
    <_>
      <internalNodes>
        0 -1 146857 7.9545872285962105e-03</internalNodes>
      <leafValues>
        -2.7186509966850281e-01 6.3820892572402954e-01</leafValues></_>
    <_>
      <internalNodes>
        0 -1 567786 1.1628803331404924e-03</internalNodes>
      <leafValues>
        2.1363103389739990e-01 -6.7659938335418701e-01</leafValues></_></weakClassifiers></stage12>
</opencv_storage>
