<?xml version="1.0"?>
<opencv_storage>
<stage18>
  <maxWeakCount>10</maxWeakCount>
  <stageThreshold>-3.7452498078346252e-01</stageThreshold>
  <weakClassifiers>
    <_>
      <internalNodes>
        0 -1 163400 -4.1904849931597710e-03</internalNodes>
      <leafValues>
        3.6448597908020020e-01 -3.1578946113586426e-01</leafValues></_>
    <_>
      <internalNodes>
        0 -1 582077 -5.9732417867053300e-05</internalNodes>
      <leafValues>
        -6.5121668577194214e-01 1.5931461751461029e-01</leafValues></_>
    <_>
      <internalNodes>
        0 -1 386086 4.6126700937747955e-02</internalNodes>
      <leafValues>
        1.0162866115570068e-01 -9.2372697591781616e-01</leafValues></_>
    <_>
      <internalNodes>
        0 -1 370213 -1.0963720269501209e-03</internalNodes>
      <leafValues>
        3.4034228324890137e-01 -3.3933633565902710e-01</leafValues></_>
    <_>
      <internalNodes>
        0 -1 166628 3.4189060330390930e-02</internalNodes>
      <leafValues>
        -2.1677471697330475e-01 5.3985261917114258e-01</leafValues></_>
    <_>
      <internalNodes>
        0 -1 256074 -9.5528624951839447e-03</internalNodes>
      <leafValues>
        -7.9465448856353760e-01 1.4133402705192566e-01</leafValues></_>
    <_>
      <internalNodes>
        0 -1 377052 -5.4730311967432499e-04</internalNodes>
      <leafValues>
        4.6530908346176147e-01 -2.5977951288223267e-01</leafValues></_>
    <_>
      <internalNodes>
        0 -1 91283 -3.3483272418379784e-03</internalNodes>
      <leafValues>
        -6.0728865861892700e-01 1.7456214129924774e-01</leafValues></_>
    <_>
      <internalNodes>
        0 -1 468069 -6.6066533327102661e-04</internalNodes>
      <leafValues>
        5.7451689243316650e-01 -2.1171697974205017e-01</leafValues></_>
    <_>
      <internalNodes>
        0 -1 303993 -2.6146008167415857e-03</internalNodes>
      <leafValues>
        -1.8607065081596375e-01 5.7141941785812378e-01</leafValues></_></weakClassifiers></stage18>
</opencv_storage>
