<?xml version="1.0"?>
<opencv_storage>
<stage2>
  <maxWeakCount>9</maxWeakCount>
  <stageThreshold>-4.6515259146690369e-01</stageThreshold>
  <weakClassifiers>
    <_>
      <internalNodes>
        0 -1 227108 4.6527817845344543e-02</internalNodes>
      <leafValues>
        -4.1463413834571838e-01 6.9565218687057495e-01</leafValues></_>
    <_>
      <internalNodes>
        0 -1 642585 -4.5409565791487694e-04</internalNodes>
      <leafValues>
        -7.3058837652206421e-01 2.5558272004127502e-01</leafValues></_>
    <_>
      <internalNodes>
        0 -1 566359 6.3626579940319061e-03</internalNodes>
      <leafValues>
        -3.5599118471145630e-01 5.2217185497283936e-01</leafValues></_>
    <_>
      <internalNodes>
        0 -1 12242 -1.9066479057073593e-02</internalNodes>
      <leafValues>
        -9.0775334835052490e-01 2.9315316677093506e-01</leafValues></_>
    <_>
      <internalNodes>
        0 -1 268369 1.6106620430946350e-02</internalNodes>
      <leafValues>
        -3.1848728656768799e-01 8.3538258075714111e-01</leafValues></_>
    <_>
      <internalNodes>
        0 -1 566695 -3.9238447789102793e-04</internalNodes>
      <leafValues>
        -7.7753198146820068e-01 3.3062568306922913e-01</leafValues></_>
    <_>
      <internalNodes>
        0 -1 244626 3.0680722557008266e-03</internalNodes>
      <leafValues>
        -3.3593547344207764e-01 7.1277719736099243e-01</leafValues></_>
    <_>
      <internalNodes>
        0 -1 151122 -5.2651166915893555e-03</internalNodes>
      <leafValues>
        6.8034070730209351e-01 -2.8948965668678284e-01</leafValues></_>
    <_>
      <internalNodes>
        0 -1 477405 -7.7995928004384041e-03</internalNodes>
      <leafValues>
        5.7397747039794922e-01 -3.6981210112571716e-01</leafValues></_></weakClassifiers></stage2>
</opencv_storage>
