<?xml version="1.0"?>
<opencv_storage>
<stage1>
  <maxWeakCount>6</maxWeakCount>
  <stageThreshold>-5.4221886396408081e-01</stageThreshold>
  <weakClassifiers>
    <_>
      <internalNodes>
        0 -1 190841 -3.1277652829885483e-02</internalNodes>
      <leafValues>
        6.1666667461395264e-01 -5.6962025165557861e-01</leafValues></_>
    <_>
      <internalNodes>
        0 -1 226935 -3.2383002340793610e-02</internalNodes>
      <leafValues>
        8.6867910623550415e-01 -2.4514190852642059e-01</leafValues></_>
    <_>
      <internalNodes>
        0 -1 226751 8.2031106576323509e-03</internalNodes>
      <leafValues>
        -3.1450262665748596e-01 6.5346413850784302e-01</leafValues></_>
    <_>
      <internalNodes>
        0 -1 348408 2.0311024039983749e-02</internalNodes>
      <leafValues>
        -2.4825692176818848e-01 6.9590729475021362e-01</leafValues></_>
    <_>
      <internalNodes>
        0 -1 6294 -8.2414057105779648e-03</internalNodes>
      <leafValues>
        7.0182454586029053e-01 -3.0462253093719482e-01</leafValues></_>
    <_>
      <internalNodes>
        0 -1 595992 -4.9985013902187347e-04</internalNodes>
      <leafValues>
        -8.1068593263626099e-01 2.7982798218727112e-01</leafValues></_></weakClassifiers></stage1>
</opencv_storage>
