<?xml version="1.0"?>
<opencv_storage>
<stage8>
  <maxWeakCount>13</maxWeakCount>
  <stageThreshold>-6.9398748874664307e-01</stageThreshold>
  <weakClassifiers>
    <_>
      <internalNodes>
        0 -1 381472 2.9775543953292072e-04</internalNodes>
      <leafValues>
        -3.2038834691047668e-01 4.9450549483299255e-01</leafValues></_>
    <_>
      <internalNodes>
        0 -1 287804 -1.0527156293392181e-01</internalNodes>
      <leafValues>
        4.1345345973968506e-01 -3.8643395900726318e-01</leafValues></_>
    <_>
      <internalNodes>
        0 -1 92384 -2.2262609004974365e-01</internalNodes>
      <leafValues>
        2.5908502936363220e-01 -5.8436238765716553e-01</leafValues></_>
    <_>
      <internalNodes>
        0 -1 66280 -4.3941872718278319e-05</internalNodes>
      <leafValues>
        -4.7292637825012207e-01 3.4020030498504639e-01</leafValues></_>
    <_>
      <internalNodes>
        0 -1 623093 1.7429500818252563e-02</internalNodes>
      <leafValues>
        -2.1318504214286804e-01 8.1969243288040161e-01</leafValues></_>
    <_>
      <internalNodes>
        0 -1 642289 3.9867952000349760e-04</internalNodes>
      <leafValues>
        2.5290104746818542e-01 -5.6413036584854126e-01</leafValues></_>
    <_>
      <internalNodes>
        0 -1 640750 9.0567499864846468e-04</internalNodes>
      <leafValues>
        2.3418185114860535e-01 -8.3389705419540405e-01</leafValues></_>
    <_>
      <internalNodes>
        0 -1 128817 -1.8609721155371517e-04</internalNodes>
      <leafValues>
        3.9173045754432678e-01 -3.6286827921867371e-01</leafValues></_>
    <_>
      <internalNodes>
        0 -1 119461 2.1072758827358484e-03</internalNodes>
      <leafValues>
        -2.5032606720924377e-01 6.7008435726165771e-01</leafValues></_>
    <_>
      <internalNodes>
        0 -1 371525 9.5236289780586958e-04</internalNodes>
      <leafValues>
        -3.1104895472526550e-01 4.8894271254539490e-01</leafValues></_>
    <_>
      <internalNodes>
        0 -1 577822 2.3464160040020943e-03</internalNodes>
      <leafValues>
        -2.9781484603881836e-01 4.7524675726890564e-01</leafValues></_>
    <_>
      <internalNodes>
        0 -1 578844 5.4009510204195976e-03</internalNodes>
      <leafValues>
        -1.9329097867012024e-01 8.6015874147415161e-01</leafValues></_>
    <_>
      <internalNodes>
        0 -1 396940 4.1411556303501129e-03</internalNodes>
      <leafValues>
        -2.0136515796184540e-01 6.4192438125610352e-01</leafValues></_></weakClassifiers></stage8>
</opencv_storage>
