<?xml version="1.0"?>
<opencv_storage>
<stage21>
  <maxWeakCount>10</maxWeakCount>
  <stageThreshold>-8.3204340934753418e-01</stageThreshold>
  <weakClassifiers>
    <_>
      <internalNodes>
        0 -1 314752 -5.1468651508912444e-04</internalNodes>
      <leafValues>
        2.1276595070958138e-02 -9.4285714626312256e-01</leafValues></_>
    <_>
      <internalNodes>
        0 -1 130784 -2.9038861393928528e-03</internalNodes>
      <leafValues>
        3.2089662551879883e-01 -3.5074281692504883e-01</leafValues></_>
    <_>
      <internalNodes>
        0 -1 638911 -1.2439311831258237e-04</internalNodes>
      <leafValues>
        -3.8547849655151367e-01 2.9683217406272888e-01</leafValues></_>
    <_>
      <internalNodes>
        0 -1 76791 -1.1447590077295899e-03</internalNodes>
      <leafValues>
        4.0409955382347107e-01 -3.2307758927345276e-01</leafValues></_>
    <_>
      <internalNodes>
        0 -1 553567 -1.1478478088974953e-02</internalNodes>
      <leafValues>
        -6.8525063991546631e-01 1.6034828126430511e-01</leafValues></_>
    <_>
      <internalNodes>
        0 -1 130001 2.3372897703666240e-04</internalNodes>
      <leafValues>
        -2.4770605564117432e-01 5.8598214387893677e-01</leafValues></_>
    <_>
      <internalNodes>
        0 -1 360438 2.8102200012654066e-03</internalNodes>
      <leafValues>
        -1.7551341652870178e-01 6.5306645631790161e-01</leafValues></_>
    <_>
      <internalNodes>
        0 -1 367012 -8.0310506746172905e-04</internalNodes>
      <leafValues>
        5.6107145547866821e-01 -2.3085682094097137e-01</leafValues></_>
    <_>
      <internalNodes>
        0 -1 66481 -9.3033746816217899e-04</internalNodes>
      <leafValues>
        -7.9392999410629272e-01 2.3143272101879120e-01</leafValues></_>
    <_>
      <internalNodes>
        0 -1 492575 -2.3491121828556061e-03</internalNodes>
      <leafValues>
        6.4568418264389038e-01 -3.2365408539772034e-01</leafValues></_></weakClassifiers></stage21>
</opencv_storage>
