<?xml version="1.0"?>
<opencv_storage>
<stage24>
  <maxWeakCount>12</maxWeakCount>
  <stageThreshold>-6.5393948554992676e-01</stageThreshold>
  <weakClassifiers>
    <_>
      <internalNodes>
        0 -1 139129 -4.8003438860177994e-03</internalNodes>
      <leafValues>
        6.1538463830947876e-01 -2.7522936463356018e-01</leafValues></_>
    <_>
      <internalNodes>
        0 -1 412062 -3.4224856644868851e-02</internalNodes>
      <leafValues>
        -2.4076206982135773e-01 4.4646194577217102e-01</leafValues></_>
    <_>
      <internalNodes>
        0 -1 23392 -4.8554432578384876e-03</internalNodes>
      <leafValues>
        6.5747857093811035e-01 -1.8353238701820374e-01</leafValues></_>
    <_>
      <internalNodes>
        0 -1 216866 -2.1499982103705406e-03</internalNodes>
      <leafValues>
        5.2575993537902832e-01 -2.4687650799751282e-01</leafValues></_>
    <_>
      <internalNodes>
        0 -1 602280 -6.3970023766160011e-03</internalNodes>
      <leafValues>
        6.7315781116485596e-01 -1.4426614344120026e-01</leafValues></_>
    <_>
      <internalNodes>
        0 -1 597557 1.4134416123852134e-03</internalNodes>
      <leafValues>
        1.8469502031803131e-01 -7.6269835233688354e-01</leafValues></_>
    <_>
      <internalNodes>
        0 -1 163112 -3.2920320518314838e-03</internalNodes>
      <leafValues>
        5.4264193773269653e-01 -2.7303963899612427e-01</leafValues></_>
    <_>
      <internalNodes>
        0 -1 235660 8.4442773368209600e-04</internalNodes>
      <leafValues>
        2.4449796974658966e-01 -7.1234929561614990e-01</leafValues></_>
    <_>
      <internalNodes>
        0 -1 421770 6.4338077208958566e-05</internalNodes>
      <leafValues>
        2.0083928108215332e-01 -6.0488820075988770e-01</leafValues></_>
    <_>
      <internalNodes>
        0 -1 562526 -5.6285392493009567e-03</internalNodes>
      <leafValues>
        -8.7909841537475586e-01 1.5617214143276215e-01</leafValues></_>
    <_>
      <internalNodes>
        0 -1 637938 -4.8933242214843631e-04</internalNodes>
      <leafValues>
        -7.0013147592544556e-01 1.5856370329856873e-01</leafValues></_>
    <_>
      <internalNodes>
        0 -1 315362 9.0650701895356178e-04</internalNodes>
      <leafValues>
        -2.4495555460453033e-01 6.2830811738967896e-01</leafValues></_></weakClassifiers></stage24>
</opencv_storage>
