<?xml version="1.0"?>
<opencv_storage>
<stage5>
  <maxWeakCount>7</maxWeakCount>
  <stageThreshold>-2.6946151256561279e-01</stageThreshold>
  <weakClassifiers>
    <_>
      <internalNodes>
        0 -1 583712 3.6921415477991104e-02</internalNodes>
      <leafValues>
        -5.2325582504272461e-01 6.3265305757522583e-01</leafValues></_>
    <_>
      <internalNodes>
        0 -1 19037 -7.8349579125642776e-03</internalNodes>
      <leafValues>
        8.0236780643463135e-01 -3.4329700469970703e-01</leafValues></_>
    <_>
      <internalNodes>
        0 -1 558154 -1.9597187929321080e-04</internalNodes>
      <leafValues>
        8.8803100585937500e-01 -2.6847621798515320e-01</leafValues></_>
    <_>
      <internalNodes>
        0 -1 45187 -1.1018268996849656e-03</internalNodes>
      <leafValues>
        7.1776342391967773e-01 -3.5555198788642883e-01</leafValues></_>
    <_>
      <internalNodes>
        0 -1 270232 -1.5835219528526068e-03</internalNodes>
      <leafValues>
        6.5516638755798340e-01 -3.6520382761955261e-01</leafValues></_>
    <_>
      <internalNodes>
        0 -1 182971 -3.0260978266596794e-02</internalNodes>
      <leafValues>
        9.0511685609817505e-01 -2.1144007146358490e-01</leafValues></_>
    <_>
      <internalNodes>
        0 -1 616308 -2.2237122175283730e-04</internalNodes>
      <leafValues>
        8.5997259616851807e-01 -2.9592218995094299e-01</leafValues></_></weakClassifiers></stage5>
</opencv_storage>
