<?xml version="1.0"?>
<opencv_storage>
<stage0>
  <maxWeakCount>6</maxWeakCount>
  <stageThreshold>-8.0829232931137085e-01</stageThreshold>
  <weakClassifiers>
    <_>
      <internalNodes>
        0 -1 225733 2.7755938470363617e-02</internalNodes>
      <leafValues>
        -5.7377046346664429e-01 8.8505744934082031e-01</leafValues></_>
    <_>
      <internalNodes>
        0 -1 618404 -1.8292260938324034e-04</internalNodes>
      <leafValues>
        -8.3188819885253906e-01 3.9748486876487732e-01</leafValues></_>
    <_>
      <internalNodes>
        0 -1 545857 -1.1321698315441608e-02</internalNodes>
      <leafValues>
        6.9177716970443726e-01 -4.6847650408744812e-01</leafValues></_>
    <_>
      <internalNodes>
        0 -1 420978 -1.7294328659772873e-02</internalNodes>
      <leafValues>
        9.3852674961090088e-01 -2.8873699903488159e-01</leafValues></_>
    <_>
      <internalNodes>
        0 -1 130837 -1.3455243781208992e-02</internalNodes>
      <leafValues>
        -6.6509878635406494e-01 4.7012555599212646e-01</leafValues></_>
    <_>
      <internalNodes>
        0 -1 617311 -8.8180992752313614e-03</internalNodes>
      <leafValues>
        8.7883818149566650e-01 -3.4491875767707825e-01</leafValues></_></weakClassifiers></stage0>
</opencv_storage>
