<?xml version="1.0"?>
<opencv_storage>
<stage9>
  <maxWeakCount>7</maxWeakCount>
  <stageThreshold>-1.0120190382003784e+00</stageThreshold>
  <weakClassifiers>
    <_>
      <internalNodes>
        0 -1 445578 -2.4576708674430847e-02</internalNodes>
      <leafValues>
        -6.8098157644271851e-01 6.7164176702499390e-01</leafValues></_>
    <_>
      <internalNodes>
        0 -1 399737 -8.4803074598312378e-02</internalNodes>
      <leafValues>
        -4.3106874823570251e-01 4.6581634879112244e-01</leafValues></_>
    <_>
      <internalNodes>
        0 -1 66294 2.5221984833478928e-04</internalNodes>
      <leafValues>
        3.0146944522857666e-01 -6.9692271947860718e-01</leafValues></_>
    <_>
      <internalNodes>
        0 -1 66582 1.2575268920045346e-04</internalNodes>
      <leafValues>
        3.3855664730072021e-01 -6.4386248588562012e-01</leafValues></_>
    <_>
      <internalNodes>
        0 -1 277808 -8.3646067650988698e-04</internalNodes>
      <leafValues>
        -2.8412431478500366e-01 8.5985636711120605e-01</leafValues></_>
    <_>
      <internalNodes>
        0 -1 18967 5.4233503760769963e-04</internalNodes>
      <leafValues>
        2.8333413600921631e-01 -7.5694751739501953e-01</leafValues></_>
    <_>
      <internalNodes>
        0 -1 162503 -2.4125247728079557e-04</internalNodes>
      <leafValues>
        -5.3920459747314453e-01 3.1985357403755188e-01</leafValues></_></weakClassifiers></stage9>
</opencv_storage>
