<?xml version="1.0"?>
<opencv_storage>
<stage10>
  <maxWeakCount>6</maxWeakCount>
  <stageThreshold>-8.4749591350555420e-01</stageThreshold>
  <weakClassifiers>
    <_>
      <internalNodes>
        0 -1 104431 -3.2189184427261353e-01</internalNodes>
      <leafValues>
        -5.9281438589096069e-01 6.8932038545608521e-01</leafValues></_>
    <_>
      <internalNodes>
        0 -1 641631 -2.9746082145720720e-04</internalNodes>
      <leafValues>
        -7.6779609918594360e-01 2.9609560966491699e-01</leafValues></_>
    <_>
      <internalNodes>
        0 -1 341302 -8.1177249550819397e-02</internalNodes>
      <leafValues>
        -5.7572346925735474e-01 3.8513407111167908e-01</leafValues></_>
    <_>
      <internalNodes>
        0 -1 641762 -1.5262970700860023e-03</internalNodes>
      <leafValues>
        -6.6387730836868286e-01 3.7605357170104980e-01</leafValues></_>
    <_>
      <internalNodes>
        0 -1 138084 -6.6813564626500010e-04</internalNodes>
      <leafValues>
        -5.7883375883102417e-01 3.5593345761299133e-01</leafValues></_>
    <_>
      <internalNodes>
        0 -1 163694 1.9838736625388265e-04</internalNodes>
      <leafValues>
        2.6356771588325500e-01 -7.3313105106353760e-01</leafValues></_></weakClassifiers></stage10>
</opencv_storage>
