<?xml version="1.0"?>
<opencv_storage>
<stage12>
  <maxWeakCount>17</maxWeakCount>
  <stageThreshold>-9.8376494646072388e-01</stageThreshold>
  <weakClassifiers>
    <_>
      <internalNodes>
        0 -1 641624 -1.0365260823164135e-04</internalNodes>
      <leafValues>
        -7.0909088850021362e-01 -8.5889570415019989e-02</leafValues></_>
    <_>
      <internalNodes>
        0 -1 255644 -1.6699607949703932e-03</internalNodes>
      <leafValues>
        -8.6271440982818604e-01 7.6627321541309357e-02</leafValues></_>
    <_>
      <internalNodes>
        0 -1 369789 1.5619951300323009e-03</internalNodes>
      <leafValues>
        -2.6491886377334595e-01 2.9241207242012024e-01</leafValues></_>
    <_>
      <internalNodes>
        0 -1 83907 2.7412315830588341e-02</internalNodes>
      <leafValues>
        -1.5359638631343842e-01 5.6721830368041992e-01</leafValues></_>
    <_>
      <internalNodes>
        0 -1 219986 4.2057582177221775e-03</internalNodes>
      <leafValues>
        -9.6685796976089478e-02 7.5449848175048828e-01</leafValues></_>
    <_>
      <internalNodes>
        0 -1 255064 1.2970494572073221e-03</internalNodes>
      <leafValues>
        1.3406603038311005e-01 -7.1487456560134888e-01</leafValues></_>
    <_>
      <internalNodes>
        0 -1 429285 -9.2989474534988403e-02</internalNodes>
      <leafValues>
        6.7193204164505005e-01 -1.1174041032791138e-01</leafValues></_>
    <_>
      <internalNodes>
        0 -1 555291 -2.9729189351201057e-02</internalNodes>
      <leafValues>
        -4.5885634422302246e-01 2.1801623702049255e-01</leafValues></_>
    <_>
      <internalNodes>
        0 -1 338437 2.1418331016320735e-04</internalNodes>
      <leafValues>
        2.1598127484321594e-01 -4.3611109256744385e-01</leafValues></_>
    <_>
      <internalNodes>
        0 -1 122581 -2.2887656814418733e-04</internalNodes>
      <leafValues>
        6.1621618270874023e-01 -1.6147889196872711e-01</leafValues></_>
    <_>
      <internalNodes>
        0 -1 194637 9.3955088232178241e-05</internalNodes>
      <leafValues>
        1.6652502119541168e-01 -5.1618862152099609e-01</leafValues></_>
    <_>
      <internalNodes>
        0 -1 464354 7.6025316957384348e-04</internalNodes>
      <leafValues>
        -1.9367568194866180e-01 5.0779604911804199e-01</leafValues></_>
    <_>
      <internalNodes>
        0 -1 638485 2.5559933856129646e-03</internalNodes>
      <leafValues>
        1.1251848191022873e-01 -7.9542094469070435e-01</leafValues></_>
    <_>
      <internalNodes>
        0 -1 387297 -6.7016706452704966e-05</internalNodes>
      <leafValues>
        2.6723384857177734e-01 -3.4899872541427612e-01</leafValues></_>
    <_>
      <internalNodes>
        0 -1 514773 -2.7512017637491226e-02</internalNodes>
      <leafValues>
        6.0296034812927246e-01 -1.9761343300342560e-01</leafValues></_>
    <_>
      <internalNodes>
        0 -1 450467 -6.9690365344285965e-03</internalNodes>
      <leafValues>
        7.4396806955337524e-01 -1.4155091345310211e-01</leafValues></_>
    <_>
      <internalNodes>
        0 -1 416757 2.5592938065528870e-02</internalNodes>
      <leafValues>
        -1.7010875046253204e-01 5.9316712617874146e-01</leafValues></_></weakClassifiers></stage12>
</opencv_storage>
