<?xml version="1.0"?>
<opencv_storage>
<stage13>
  <maxWeakCount>9</maxWeakCount>
  <stageThreshold>-4.2598599195480347e-01</stageThreshold>
  <weakClassifiers>
    <_>
      <internalNodes>
        0 -1 95744 -3.3721402287483215e-02</internalNodes>
      <leafValues>
        -3.1775701045989990e-01 5.6626504659652710e-01</leafValues></_>
    <_>
      <internalNodes>
        0 -1 628572 -2.2538644261658192e-03</internalNodes>
      <leafValues>
        -6.5555089712142944e-01 2.1969650685787201e-01</leafValues></_>
    <_>
      <internalNodes>
        0 -1 225765 -1.4595681568607688e-03</internalNodes>
      <leafValues>
        -7.7495527267456055e-01 1.6318711638450623e-01</leafValues></_>
    <_>
      <internalNodes>
        0 -1 2266 -2.4481280706822872e-04</internalNodes>
      <leafValues>
        -4.2759159207344055e-01 3.1496015191078186e-01</leafValues></_>
    <_>
      <internalNodes>
        0 -1 99551 -8.4377941675484180e-05</internalNodes>
      <leafValues>
        -5.7976472377777100e-01 2.5101572275161743e-01</leafValues></_>
    <_>
      <internalNodes>
        0 -1 498001 -8.6191464215517044e-03</internalNodes>
      <leafValues>
        5.9485876560211182e-01 -2.5400185585021973e-01</leafValues></_>
    <_>
      <internalNodes>
        0 -1 31556 -1.7923719715327024e-03</internalNodes>
      <leafValues>
        -8.5159134864807129e-01 1.6990405321121216e-01</leafValues></_>
    <_>
      <internalNodes>
        0 -1 636006 -2.9680286534130573e-03</internalNodes>
      <leafValues>
        3.9566358923912048e-01 -3.3881410956382751e-01</leafValues></_>
    <_>
      <internalNodes>
        0 -1 642384 -3.4216635394841433e-03</internalNodes>
      <leafValues>
        2.4107082188129425e-01 -6.1407542228698730e-01</leafValues></_></weakClassifiers></stage13>
</opencv_storage>
