<?xml version="1.0"?>
<opencv_storage>
<stage16>
  <maxWeakCount>13</maxWeakCount>
  <stageThreshold>-7.1700698137283325e-01</stageThreshold>
  <weakClassifiers>
    <_>
      <internalNodes>
        0 -1 637245 9.7253182902932167e-03</internalNodes>
      <leafValues>
        -3.3846154808998108e-01 5.6521737575531006e-01</leafValues></_>
    <_>
      <internalNodes>
        0 -1 392791 -4.1849288390949368e-04</internalNodes>
      <leafValues>
        1.9686387479305267e-01 -4.3849956989288330e-01</leafValues></_>
    <_>
      <internalNodes>
        0 -1 1539 -3.6367997527122498e-02</internalNodes>
      <leafValues>
        -6.8807530403137207e-01 1.6853854060173035e-01</leafValues></_>
    <_>
      <internalNodes>
        0 -1 283516 -9.1969792265444994e-04</internalNodes>
      <leafValues>
        -7.7131378650665283e-01 9.1902613639831543e-02</leafValues></_>
    <_>
      <internalNodes>
        0 -1 454381 -8.6196698248386383e-03</internalNodes>
      <leafValues>
        3.5104018449783325e-01 -2.1594671905040741e-01</leafValues></_>
    <_>
      <internalNodes>
        0 -1 55539 -4.2865484952926636e-02</internalNodes>
      <leafValues>
        -8.0568832159042358e-01 8.2064159214496613e-02</leafValues></_>
    <_>
      <internalNodes>
        0 -1 595947 -2.9078884981572628e-03</internalNodes>
      <leafValues>
        7.3744308948516846e-01 -1.2830057740211487e-01</leafValues></_>
    <_>
      <internalNodes>
        0 -1 420000 6.0931459302082658e-04</internalNodes>
      <leafValues>
        1.3312770426273346e-01 -6.1808735132217407e-01</leafValues></_>
    <_>
      <internalNodes>
        0 -1 94590 -2.1768480539321899e-02</internalNodes>
      <leafValues>
        5.6632393598556519e-01 -1.5822775661945343e-01</leafValues></_>
    <_>
      <internalNodes>
        0 -1 114832 7.2281328029930592e-03</internalNodes>
      <leafValues>
        -1.9287014007568359e-01 5.2972531318664551e-01</leafValues></_>
    <_>
      <internalNodes>
        0 -1 141564 -8.7197953835129738e-03</internalNodes>
      <leafValues>
        5.9008699655532837e-01 -1.5787018835544586e-01</leafValues></_>
    <_>
      <internalNodes>
        0 -1 23042 -1.3442074414342642e-03</internalNodes>
      <leafValues>
        -3.6284041404724121e-01 2.6195394992828369e-01</leafValues></_>
    <_>
      <internalNodes>
        0 -1 584159 1.1944160796701908e-03</internalNodes>
      <leafValues>
        1.7558255791664124e-01 -5.0069040060043335e-01</leafValues></_></weakClassifiers></stage16>
</opencv_storage>
