<?xml version="1.0"?>
<opencv_storage>
<stage4>
  <maxWeakCount>11</maxWeakCount>
  <stageThreshold>-2.9114770889282227e-01</stageThreshold>
  <weakClassifiers>
    <_>
      <internalNodes>
        0 -1 77556 -1.7052620649337769e-01</internalNodes>
      <leafValues>
        6.4210528135299683e-01 -4.0594059228897095e-01</leafValues></_>
    <_>
      <internalNodes>
        0 -1 633963 -1.0803909390233457e-04</internalNodes>
      <leafValues>
        -6.6819036006927490e-01 2.5593438744544983e-01</leafValues></_>
    <_>
      <internalNodes>
        0 -1 586797 -3.0489568598568439e-03</internalNodes>
      <leafValues>
        5.1318162679672241e-01 -3.0208414793014526e-01</leafValues></_>
    <_>
      <internalNodes>
        0 -1 525351 2.8000343590974808e-03</internalNodes>
      <leafValues>
        -2.8766661882400513e-01 5.3161501884460449e-01</leafValues></_>
    <_>
      <internalNodes>
        0 -1 396812 2.3370636627078056e-03</internalNodes>
      <leafValues>
        -2.6335990428924561e-01 6.0750180482864380e-01</leafValues></_>
    <_>
      <internalNodes>
        0 -1 635498 -1.3817729428410530e-02</internalNodes>
      <leafValues>
        -7.5424325466156006e-01 2.2780874371528625e-01</leafValues></_>
    <_>
      <internalNodes>
        0 -1 471283 -8.0709848552942276e-03</internalNodes>
      <leafValues>
        7.4089282751083374e-01 -2.1891552209854126e-01</leafValues></_>
    <_>
      <internalNodes>
        0 -1 618388 -1.2403153232298791e-04</internalNodes>
      <leafValues>
        -6.2624716758728027e-01 2.7534696459770203e-01</leafValues></_>
    <_>
      <internalNodes>
        0 -1 401131 9.1974437236785889e-03</internalNodes>
      <leafValues>
        -3.1123423576354980e-01 6.7969048023223877e-01</leafValues></_>
    <_>
      <internalNodes>
        0 -1 65281 -3.2271794043481350e-04</internalNodes>
      <leafValues>
        -5.9468394517898560e-01 3.5463467240333557e-01</leafValues></_>
    <_>
      <internalNodes>
        0 -1 516478 -8.0190561711788177e-03</internalNodes>
      <leafValues>
        6.2745004892349243e-01 -3.1974694132804871e-01</leafValues></_></weakClassifiers></stage4>
</opencv_storage>
