<?xml version="1.0"?>
<opencv_storage>
<stage7>
  <maxWeakCount>8</maxWeakCount>
  <stageThreshold>-5.9885579347610474e-01</stageThreshold>
  <weakClassifiers>
    <_>
      <internalNodes>
        0 -1 634229 -7.7194690704345703e-02</internalNodes>
      <leafValues>
        5.8415842056274414e-01 -5.1479291915893555e-01</leafValues></_>
    <_>
      <internalNodes>
        0 -1 642335 -2.5427513755857944e-03</internalNodes>
      <leafValues>
        -7.0996135473251343e-01 2.5764214992523193e-01</leafValues></_>
    <_>
      <internalNodes>
        0 -1 510142 -1.0749394074082375e-02</internalNodes>
      <leafValues>
        5.3038436174392700e-01 -3.8832476735115051e-01</leafValues></_>
    <_>
      <internalNodes>
        0 -1 560507 1.0877420427277684e-03</internalNodes>
      <leafValues>
        -2.3057308793067932e-01 7.1350461244583130e-01</leafValues></_>
    <_>
      <internalNodes>
        0 -1 642576 -5.9025114751420915e-05</internalNodes>
      <leafValues>
        -6.4201080799102783e-01 3.1158182024955750e-01</leafValues></_>
    <_>
      <internalNodes>
        0 -1 398646 1.3381275348365307e-03</internalNodes>
      <leafValues>
        -2.4141274392604828e-01 8.1293827295303345e-01</leafValues></_>
    <_>
      <internalNodes>
        0 -1 6926 -8.2663446664810181e-02</internalNodes>
      <leafValues>
        4.9172741174697876e-01 -4.0232035517692566e-01</leafValues></_>
    <_>
      <internalNodes>
        0 -1 422176 5.3036855533719063e-03</internalNodes>
      <leafValues>
        -2.8470370173454285e-01 6.8894922733306885e-01</leafValues></_></weakClassifiers></stage7>
</opencv_storage>
