<?xml version="1.0"?>
<opencv_storage>
<stage12>
  <maxWeakCount>11</maxWeakCount>
  <stageThreshold>-6.4206755161285400e-01</stageThreshold>
  <weakClassifiers>
    <_>
      <internalNodes>
        0 -1 444479 -1.9746113102883101e-03</internalNodes>
      <leafValues>
        2.4285714328289032e-01 -4.7692307829856873e-01</leafValues></_>
    <_>
      <internalNodes>
        0 -1 60699 -1.6467913985252380e-02</internalNodes>
      <leafValues>
        5.3543674945831299e-01 -3.2234320044517517e-01</leafValues></_>
    <_>
      <internalNodes>
        0 -1 256306 1.8218789249658585e-02</internalNodes>
      <leafValues>
        1.6483500599861145e-01 -8.5399490594863892e-01</leafValues></_>
    <_>
      <internalNodes>
        0 -1 611880 -5.6321434676647186e-03</internalNodes>
      <leafValues>
        6.9797581434249878e-01 -2.2274228930473328e-01</leafValues></_>
    <_>
      <internalNodes>
        0 -1 446544 6.6421949304640293e-03</internalNodes>
      <leafValues>
        2.8078418970108032e-01 -6.1926412582397461e-01</leafValues></_>
    <_>
      <internalNodes>
        0 -1 475913 -2.9999646358191967e-03</internalNodes>
      <leafValues>
        6.0999619960784912e-01 -2.6906892657279968e-01</leafValues></_>
    <_>
      <internalNodes>
        0 -1 433926 -3.7107192911207676e-03</internalNodes>
      <leafValues>
        5.5982166528701782e-01 -2.9154416918754578e-01</leafValues></_>
    <_>
      <internalNodes>
        0 -1 43274 9.6420357003808022e-03</internalNodes>
      <leafValues>
        -3.2047989964485168e-01 5.1160681247711182e-01</leafValues></_>
    <_>
      <internalNodes>
        0 -1 603992 -4.1096583008766174e-03</internalNodes>
      <leafValues>
        8.2456266880035400e-01 -2.2236737608909607e-01</leafValues></_>
    <_>
      <internalNodes>
        0 -1 638355 2.0168034825474024e-04</internalNodes>
      <leafValues>
        -3.7560552358627319e-01 4.5755824446678162e-01</leafValues></_>
    <_>
      <internalNodes>
        0 -1 367706 7.4595259502530098e-03</internalNodes>
      <leafValues>
        -3.1635960936546326e-01 5.3432261943817139e-01</leafValues></_></weakClassifiers></stage12>
</opencv_storage>
