<?xml version="1.0"?>
<opencv_storage>
<stage10>
  <maxWeakCount>11</maxWeakCount>
  <stageThreshold>-8.0580759048461914e-01</stageThreshold>
  <weakClassifiers>
    <_>
      <internalNodes>
        0 -1 369964 4.7210529446601868e-03</internalNodes>
      <leafValues>
        -3.3333334326744080e-01 4.3137255311012268e-01</leafValues></_>
    <_>
      <internalNodes>
        0 -1 66553 -7.9496024409309030e-04</internalNodes>
      <leafValues>
        -5.6676936149597168e-01 2.2545541822910309e-01</leafValues></_>
    <_>
      <internalNodes>
        0 -1 607187 -3.3448559697717428e-03</internalNodes>
      <leafValues>
        -8.8575881719589233e-01 1.2684410810470581e-01</leafValues></_>
    <_>
      <internalNodes>
        0 -1 101729 -8.1758340820670128e-04</internalNodes>
      <leafValues>
        4.6046364307403564e-01 -3.1071421504020691e-01</leafValues></_>
    <_>
      <internalNodes>
        0 -1 314231 -7.8661961015313864e-04</internalNodes>
      <leafValues>
        4.4156372547149658e-01 -3.3302676677703857e-01</leafValues></_>
    <_>
      <internalNodes>
        0 -1 255807 -8.1801842898130417e-03</internalNodes>
      <leafValues>
        8.3418476581573486e-01 -1.8851052224636078e-01</leafValues></_>
    <_>
      <internalNodes>
        0 -1 406264 -3.3168257214128971e-03</internalNodes>
      <leafValues>
        -2.6382890343666077e-01 5.1901543140411377e-01</leafValues></_>
    <_>
      <internalNodes>
        0 -1 275823 5.8094547130167484e-03</internalNodes>
      <leafValues>
        -2.4259516596794128e-01 6.4610499143600464e-01</leafValues></_>
    <_>
      <internalNodes>
        0 -1 335413 5.4737962782382965e-03</internalNodes>
      <leafValues>
        -2.7357706427574158e-01 5.2603304386138916e-01</leafValues></_>
    <_>
      <internalNodes>
        0 -1 163426 1.1905559949809685e-04</internalNodes>
      <leafValues>
        2.7745929360389709e-01 -5.8718633651733398e-01</leafValues></_>
    <_>
      <internalNodes>
        0 -1 512197 -1.8111259851139039e-04</internalNodes>
      <leafValues>
        -6.2058001756668091e-01 2.5549456477165222e-01</leafValues></_></weakClassifiers></stage10>
</opencv_storage>
