<?xml version="1.0"?>
<opencv_storage>
<stage5>
  <maxWeakCount>5</maxWeakCount>
  <stageThreshold>-7.7660363912582397e-01</stageThreshold>
  <weakClassifiers>
    <_>
      <internalNodes>
        0 -1 525575 4.7705166041851044e-02</internalNodes>
      <leafValues>
        -5.6818181276321411e-01 6.5289258956909180e-01</leafValues></_>
    <_>
      <internalNodes>
        0 -1 54994 -4.7519714571535587e-03</internalNodes>
      <leafValues>
        8.0151873826980591e-01 -3.6030137538909912e-01</leafValues></_>
    <_>
      <internalNodes>
        0 -1 615705 -9.8693277686834335e-04</internalNodes>
      <leafValues>
        8.0183446407318115e-01 -3.2334592938423157e-01</leafValues></_>
    <_>
      <internalNodes>
        0 -1 123728 5.7764787925407290e-04</internalNodes>
      <leafValues>
        -3.5227382183074951e-01 7.5579458475112915e-01</leafValues></_>
    <_>
      <internalNodes>
        0 -1 237144 -3.8696583360433578e-03</internalNodes>
      <leafValues>
        8.6464107036590576e-01 -2.9768109321594238e-01</leafValues></_></weakClassifiers></stage5>
</opencv_storage>
