<?xml version="1.0"?>
<opencv_storage>
<stage16>
  <maxWeakCount>11</maxWeakCount>
  <stageThreshold>-5.0302666425704956e-01</stageThreshold>
  <weakClassifiers>
    <_>
      <internalNodes>
        0 -1 6853 -5.4678671061992645e-02</internalNodes>
      <leafValues>
        6.2318837642669678e-01 -2.8070175647735596e-01</leafValues></_>
    <_>
      <internalNodes>
        0 -1 64281 1.2302041286602616e-03</internalNodes>
      <leafValues>
        1.7836968600749969e-01 -6.3941967487335205e-01</leafValues></_>
    <_>
      <internalNodes>
        0 -1 132749 3.7161491811275482e-02</internalNodes>
      <leafValues>
        1.2556086480617523e-01 -8.1764978170394897e-01</leafValues></_>
    <_>
      <internalNodes>
        0 -1 642513 2.6740711182355881e-03</internalNodes>
      <leafValues>
        1.1681059002876282e-01 -7.6538991928100586e-01</leafValues></_>
    <_>
      <internalNodes>
        0 -1 452205 -9.6299918368458748e-04</internalNodes>
      <leafValues>
        4.3049693107604980e-01 -2.7134990692138672e-01</leafValues></_>
    <_>
      <internalNodes>
        0 -1 640554 -1.0090946307172999e-04</internalNodes>
      <leafValues>
        -7.1092784404754639e-01 1.5847082436084747e-01</leafValues></_>
    <_>
      <internalNodes>
        0 -1 455135 -1.7528023454360664e-04</internalNodes>
      <leafValues>
        4.1639614105224609e-01 -2.9970079660415649e-01</leafValues></_>
    <_>
      <internalNodes>
        0 -1 226516 -7.6371041359379888e-05</internalNodes>
      <leafValues>
        -4.4932085275650024e-01 2.9902055859565735e-01</leafValues></_>
    <_>
      <internalNodes>
        0 -1 597975 -2.1428506821393967e-02</internalNodes>
      <leafValues>
        8.6364406347274780e-01 -1.6847211122512817e-01</leafValues></_>
    <_>
      <internalNodes>
        0 -1 131518 -2.2486518137156963e-03</internalNodes>
      <leafValues>
        2.4267576634883881e-01 -6.3310480117797852e-01</leafValues></_>
    <_>
      <internalNodes>
        0 -1 536989 1.1678925948217511e-03</internalNodes>
      <leafValues>
        -3.2808417081832886e-01 5.1857632398605347e-01</leafValues></_></weakClassifiers></stage16>
</opencv_storage>
